<?xml version="1.0"?>
<opencv_storage>
<opencv_ml_svm>
  <format>3</format>
  <svmType>C_SVC</svmType>
  <kernel>
    <type>RBF</type>
    <gamma>0.50625000000000009</gamma></kernel>
  <C>12.5</C>
  <term_criteria><epsilon>1.1920928955078125e-07</epsilon>
    <iterations>1000</iterations></term_criteria>
  <var_count>50</var_count>
  <class_count>4</class_count>
  <class_labels type_id="opencv-matrix">
    <rows>4</rows>
    <cols>1</cols>
    <dt>i</dt>
    <data>
      0 1 2 3</data></class_labels>
  <sv_total>1575</sv_total>
  <support_vectors>
    <_>
      0. 0.200000003 0. 0. 0. 0. 0. 0. 0.0285714287 0. 0. 0. 0. 0.
      0.0285714287 0.0285714287 0.0285714287 0. 0. 0.0285714287
      0.0285714287 0. 0. 0. 0.0285714287 0. 0.0571428575 0.0857142881 0.
      0. 0.0285714287 0. 0. 0. 0. 0. 0.200000003 0. 0. 0.0571428575
      0.0285714287 0. 0. 0. 0. 0. 0.0285714287 0. 0.0857142881
      0.0285714287</_>
    <_>
      0. 0. 0. 0. 0. 0. 0. 0. 0. 0. 0. 0. 0. 0. 0.285714298 0. 0. 0. 0.
      0. 0. 0. 0. 0. 0. 0. 0. 0. 0. 0. 0. 0. 0. 0.142857149 0. 0. 0. 0.
      0. 0. 0. 0. 0. 0. 0. 0.428571463 0. 0. 0.142857149 0.</_>
    <_>
      0. 0. 0. 0. 0. 0. 0. 0. 0. 0. 0. 0. 0. 0. 0. 0. 0. 0. 0.
      0.400000006 0. 0. 0. 0. 0. 0. 0. 0. 0. 0. 0. 0. 0. 0. 0. 0. 0. 0.
      0. 0. 0. 0.400000006 0. 0. 0. 0.200000003 0. 0. 0. 0.</_>
    <_>
      0. 0. 0. 0. 0. 0. 0. 0. 0. 0. 0. 0. 1. 0. 0. 0. 0. 0. 0. 0. 0. 0.
      0. 0. 0. 0. 0. 0. 0. 0. 0. 0. 0. 0. 0. 0. 0. 0. 0. 0. 0. 0. 0. 0.
      0. 0. 0. 0. 0. 0.</_>
    <_>
      0. 0. 0. 0.142857149 0. 0. 0. 0. 0. 0. 0. 0. 0. 0.142857149 0. 0.
      0. 0. 0.142857149 0. 0. 0. 0. 0. 0. 0. 0. 0. 0. 0. 0. 0.142857149
      0. 0. 0. 0.142857149 0. 0.285714298 0. 0. 0. 0. 0. 0. 0. 0. 0. 0.
      0. 0.</_>
    <_>
      0.111111112 0.111111112 0. 0. 0. 0. 0. 0.111111112 0. 0. 0. 0. 0.
      0. 0. 0. 0. 0. 0. 0.111111112 0. 0. 0. 0.111111112 0. 0. 0. 0. 0.
      0. 0. 0. 0.111111112 0. 0. 0. 0. 0. 0.111111112 0. 0. 0. 0. 0.
      0.222222224 0. 0. 0. 0. 0.</_>
    <_>
      0.0540540554 0. 0.0270270277 0.0810810849 0.0270270277
      0.0270270277 0.0270270277 0.0270270277 0. 0. 0. 0. 0. 0. 0.
      0.135135144 0. 0.0270270277 0.0270270277 0. 0. 0.0540540554 0.
      0.0270270277 0.0270270277 0.0540540554 0. 0. 0.108108111 0. 0. 0.
      0.0270270277 0.0270270277 0. 0.0270270277 0. 0. 0. 0. 0. 0. 0.
      0.0810810849 0. 0. 0.0270270277 0. 0.0810810849 0.</_>
    <_>
      0. 0. 0. 0.333333343 0. 0. 0. 0. 0. 0. 0. 0. 0. 0.333333343 0. 0.
      0. 0. 0. 0. 0. 0. 0. 0. 0. 0. 0. 0. 0. 0. 0. 0. 0. 0. 0. 0.
      0.333333343 0. 0. 0. 0. 0. 0. 0. 0. 0. 0. 0. 0. 0.</_>
    <_>
      0.0806451589 0.0483870953 0. 0. 0.0161290318 0.0161290318 0. 0.
      0.0161290318 0. 0. 0.0967741907 0.0645161271 0. 0. 0.0161290318 0.
      0. 0. 0.0161290318 0.0322580636 0. 0. 0. 0. 0. 0. 0.0322580636 0.
      0.0161290318 0.0161290318 0. 0. 0.0322580636 0. 0. 0. 0. 0.
      0.0322580636 0.0161290318 0. 0.112903222 0.112903222 0. 0. 0.
      0.0161290318 0.0161290318 0.193548381</_>
    <_>
      0. 0.0465116277 0. 0.0232558139 0.0232558139 0.0232558139
      0.0232558139 0. 0.0232558139 0.0232558139 0.0697674453 0.
      0.0232558139 0. 0.0232558139 0. 0.0232558139 0. 0. 0.0232558139
      0.0465116277 0. 0.0697674453 0. 0.0232558139 0. 0. 0.0465116277
      0.0465116277 0.0465116277 0. 0. 0. 0. 0. 0. 0.116279066
      0.0697674453 0. 0. 0. 0. 0.0232558139 0. 0. 0. 0.0232558139
      0.0232558139 0. 0.116279066</_>
    <_>
      0. 0.0597014911 0. 0. 0.0149253728 0. 0.0149253728 0. 0.
      0.104477607 0.0149253728 0.0298507456 0.0149253728 0. 0.0298507456
      0.0298507456 0.0895522386 0. 0.0149253728 0.0298507456
      0.0149253728 0. 0. 0. 0.074626863 0. 0.0298507456 0.0298507456
      0.0149253728 0. 0. 0. 0. 0. 0. 0. 0.074626863 0.0149253728
      0.0149253728 0.0597014911 0. 0. 0.074626863 0. 0. 0. 0.0149253728
      0.0149253728 0.0149253728 0.104477607</_>
    <_>
      0.0229885057 0.0344827585 0.0114942528 0. 0.0344827585
      0.0114942528 0.0229885057 0. 0.0229885057 0.0459770113
      0.0114942528 0.0114942528 0.0229885057 0.0114942528 0.0344827585
      0.0114942528 0.0344827585 0. 0.0114942528 0.0574712642
      0.0229885057 0. 0.0344827585 0.0114942528 0.0574712642 0.
      0.0114942528 0.0114942528 0.0344827585 0. 0.0114942528 0. 0.
      0.0344827585 0. 0.0229885057 0.0459770113 0.0229885057 0.
      0.0114942528 0. 0. 0.0114942528 0.0804597735 0.0459770113 0.
      0.0459770113 0.0114942528 0.0114942528 0.0459770113</_>
    <_>
      0. 0. 0. 0. 0. 0. 0. 0. 0. 0. 0. 0. 0. 0. 0.111111112 0.
      0.111111112 0. 0. 0. 0.111111112 0. 0. 0. 0.111111112 0. 0.
      0.111111112 0. 0. 0. 0. 0. 0. 0. 0. 0. 0. 0.111111112 0.222222224
      0. 0. 0. 0. 0. 0. 0. 0. 0.111111112 0.</_>
    <_>
      0. 0. 0. 0. 0. 0. 0. 0. 0. 0. 0. 0. 0. 0. 0. 0. 0. 0. 0. 0. 0. 0.
      0. 0. 0. 0. 0. 0. 0. 0. 0. 0. 0. 0. 1. 0. 0. 0. 0. 0. 0. 0. 0. 0.
      0. 0. 0. 0. 0. 0.</_>
    <_>
      0. 0.0199999996 0. 0. 0.099999994 0. 0.0199999996 0. 0. 0.
      0.0399999991 0. 0.0599999987 0. 0. 0. 0.0199999996 0. 0.0399999991
      0.0199999996 0.0199999996 0. 0. 0. 0.0199999996 0. 0.0599999987
      0.0799999982 0.0399999991 0.0199999996 0. 0. 0. 0. 0. 0.
      0.0199999996 0. 0. 0.0599999987 0.0199999996 0. 0. 0.0799999982 0.
      0. 0.0199999996 0. 0.0199999996 0.219999999</_>
    <_>
      0. 0. 0. 0. 0. 0. 0. 0. 0. 0. 0. 0. 0. 0. 0. 0. 0. 0. 0. 0. 0. 0.
      0. 0. 0. 0. 0. 0. 0. 0. 0. 0. 0. 0. 1. 0. 0. 0. 0. 0. 0. 0. 0. 0.
      0. 0. 0. 0. 0. 0.</_>
    <_>
      0.0151515156 0.25757575 0. 0. 0. 0. 0.0151515156 0. 0.0303030312
      0.0909090936 0. 0. 0. 0. 0.0454545468 0. 0. 0. 0. 0. 0.0151515156
      0. 0. 0.0151515156 0. 0. 0.0303030312 0.0606060624 0.0151515156 0.
      0.0151515156 0. 0. 0.0303030312 0. 0. 0.0606060624 0. 0.
      0.075757578 0.0151515156 0. 0. 0.106060609 0. 0. 0. 0.
      0.0151515156 0.0909090936</_>
    <_>
      0. 0.125 0. 0. 0. 0. 0. 0. 0. 0. 0. 0. 0. 0. 0. 0. 0. 0. 0. 0.
      0.125 0. 0. 0. 0. 0. 0. 0. 0.25 0. 0. 0. 0. 0. 0.125 0. 0.125 0.
      0. 0. 0.125 0. 0.125 0. 0. 0. 0. 0. 0. 0.</_>
    <_>
      0. 0. 0. 0. 0. 0. 0. 0. 0. 0. 0. 0. 0. 0. 0. 0. 0. 0. 0.
      0.200000003 0. 0. 0. 0. 0. 0. 0. 0. 0.200000003 0. 0. 0. 0. 0.
      0.200000003 0. 0. 0. 0. 0. 0. 0. 0. 0.200000003 0. 0. 0.
      0.200000003 0. 0.</_>
    <_>
      0. 0. 0. 0. 0. 0. 0. 0. 0. 0. 0. 0. 0.25 0. 0. 0. 0. 0. 0. 0.25 0.
      0. 0. 0. 0. 0. 0. 0. 0. 0. 0. 0. 0. 0. 0. 0. 0. 0. 0. 0. 0. 0.25
      0. 0. 0. 0. 0. 0.25 0. 0.</_>
    <_>
      0. 0. 0. 0. 0. 0. 0. 0. 0. 0. 0. 0. 0. 0. 0. 0. 0. 0. 0.
      0.285714298 0. 0. 0. 0. 0. 0. 0.142857149 0. 0. 0. 0. 0. 0. 0. 0.
      0. 0. 0. 0. 0. 0. 0.142857149 0. 0.142857149 0. 0. 0. 0.
      0.285714298 0.</_>
    <_>
      0. 0. 0. 0. 0.5 0. 0. 0. 0. 0. 0. 0. 0. 0. 0. 0. 0. 0. 0.5 0. 0.
      0. 0. 0. 0. 0. 0. 0. 0. 0. 0. 0. 0. 0. 0. 0. 0. 0. 0. 0. 0. 0. 0.
      0. 0. 0. 0. 0. 0. 0.</_>
    <_>
      0.111111112 0. 0. 0.111111112 0. 0.111111112 0. 0. 0. 0. 0. 0. 0.
      0. 0. 0.111111112 0. 0. 0.222222224 0. 0. 0. 0. 0. 0. 0. 0. 0.
      0.111111112 0. 0. 0. 0. 0. 0. 0. 0. 0.111111112 0. 0. 0. 0. 0. 0.
      0. 0. 0.111111112 0. 0. 0.</_>
    <_>
      0. 0. 0. 0. 0. 0. 0. 0. 0. 0. 0. 0. 0. 0. 0. 0. 0. 0. 0. 0. 0.5 0.
      0. 0. 0. 0. 0. 0. 0. 0. 0. 0. 0. 0.5 0. 0. 0. 0. 0. 0. 0. 0. 0. 0.
      0. 0. 0. 0. 0. 0.</_>
    <_>
      0. 0. 0. 0.125 0. 0. 0. 0. 0. 0. 0. 0. 0. 0. 0. 0. 0. 0. 0.125 0.
      0. 0.125 0. 0. 0. 0. 0. 0. 0.125 0. 0. 0. 0. 0. 0. 0. 0. 0.125 0.
      0. 0. 0. 0. 0. 0.125 0. 0. 0. 0. 0.25</_>
    <_>
      0.15384616 0. 0. 0.0769230798 0. 0. 0. 0. 0. 0. 0. 0. 0. 0. 0.
      0.0769230798 0. 0. 0.0769230798 0. 0.0769230798 0. 0. 0. 0.
      0.0769230798 0. 0. 0.15384616 0. 0. 0. 0. 0. 0. 0.0769230798 0.
      0.0769230798 0. 0. 0. 0. 0. 0. 0.15384616 0. 0. 0. 0. 0.</_>
    <_>
      0. 0.0714285746 0. 0.0714285746 0. 0. 0. 0. 0. 0. 0. 0. 0. 0. 0.
      0. 0. 0. 0. 0. 0. 0. 0. 0. 0.0714285746 0.0714285746 0.
      0.0714285746 0. 0. 0. 0.0714285746 0. 0. 0.0714285746 0.0714285746
      0.0714285746 0.142857149 0. 0. 0. 0. 0. 0. 0. 0. 0. 0.0714285746
      0. 0.142857149</_>
    <_>
      0. 0. 0.027777778 0. 0.0833333358 0. 0.027777778 0. 0.055555556 0.
      0. 0. 0. 0. 0. 0. 0.055555556 0. 0.055555556 0.111111112
      0.027777778 0. 0.027777778 0. 0.055555556 0. 0.027777778
      0.111111112 0.055555556 0. 0. 0. 0. 0. 0. 0.027777778 0.
      0.027777778 0. 0. 0.027777778 0. 0.027777778 0. 0. 0. 0.027777778
      0. 0.0833333358 0.055555556</_>
    <_>
      0. 0.105263159 0. 0.0526315793 0. 0. 0. 0.0526315793 0. 0.
      0.105263159 0. 0. 0. 0. 0. 0.0526315793 0. 0. 0. 0.0526315793 0.
      0. 0.0526315793 0. 0. 0. 0.0526315793 0.0526315793 0. 0. 0. 0. 0.
      0. 0. 0.0526315793 0.0526315793 0. 0. 0.0526315793 0. 0.0526315793
      0.0526315793 0. 0. 0. 0.0526315793 0. 0.105263159</_>
    <_>
      0.051282052 0.205128208 0. 0.025641026 0. 0. 0. 0. 0. 0.025641026
      0.025641026 0.025641026 0. 0.025641026 0. 0.0769230798 0. 0.
      0.051282052 0. 0.051282052 0. 0. 0.025641026 0.025641026 0. 0. 0.
      0.025641026 0. 0. 0. 0.025641026 0. 0. 0. 0.15384616 0. 0.
      0.051282052 0.025641026 0. 0. 0. 0.025641026 0.051282052 0. 0.
      0.025641026 0.</_>
    <_>
      0. 0.0416666679 0. 0. 0.0416666679 0. 0. 0. 0. 0.0833333358 0.125
      0. 0. 0. 0.0416666679 0. 0.0416666679 0. 0.0416666679 0.0416666679
      0.0833333358 0. 0. 0. 0. 0. 0. 0.0416666679 0. 0. 0. 0. 0. 0. 0.
      0.0416666679 0.0416666679 0.0416666679 0. 0. 0. 0. 0.0416666679 0.
      0. 0. 0.0833333358 0.0416666679 0. 0.125</_>
    <_>
      0. 0.0434782617 0. 0. 0. 0. 0. 0. 0. 0. 0.0869565234 0.0434782617
      0. 0. 0. 0.0869565234 0.0434782617 0. 0. 0. 0.0869565234 0. 0. 0.
      0. 0. 0. 0. 0. 0.130434781 0. 0. 0. 0. 0. 0. 0.0869565234 0. 0. 0.
      0.0869565234 0. 0. 0.0434782617 0. 0. 0.0434782617 0. 0.
      0.217391312</_>
    <_>
      0.0606060624 0.151515156 0. 0.0303030312 0.0303030312 0. 0. 0. 0.
      0.0909090936 0. 0.0303030312 0.0303030312 0. 0. 0. 0.0303030312 0.
      0. 0. 0. 0. 0. 0. 0.0606060624 0. 0. 0.0606060624 0. 0. 0.
      0.0606060624 0. 0. 0. 0. 0.0606060624 0. 0. 0.0303030312
      0.0606060624 0. 0. 0. 0. 0. 0.0303030312 0. 0. 0.181818187</_>
    <_>
      0.025641026 0.15384616 0. 0. 0. 0. 0.025641026 0. 0. 0.025641026
      0.051282052 0.025641026 0. 0. 0.025641026 0.025641026 0.102564104
      0. 0. 0. 0. 0. 0.051282052 0. 0.025641026 0.025641026 0. 0. 0.
      0.051282052 0. 0.025641026 0. 0. 0.025641026 0. 0.051282052
      0.051282052 0. 0. 0.025641026 0. 0. 0. 0. 0. 0.025641026
      0.051282052 0. 0.128205135</_>
    <_>
      0.0303030312 0.121212125 0. 0. 0.0454545468 0. 0.0303030312
      0.0151515156 0.0454545468 0.0151515156 0.0151515156 0.0606060624
      0. 0. 0.0303030312 0.0151515156 0.0151515156 0. 0.0303030312
      0.0303030312 0.0303030312 0. 0. 0. 0.0151515156 0. 0.0151515156
      0.0303030312 0. 0.0151515156 0. 0. 0. 0.0151515156 0.0151515156 0.
      0.075757578 0.0303030312 0. 0.0303030312 0.0303030312 0.0303030312
      0. 0.0303030312 0. 0. 0.0303030312 0.0303030312 0.0151515156
      0.0606060624</_>
    <_>
      0. 0.0666666701 0. 0. 0.0266666673 0. 0. 0. 0. 0.0399999991
      0.0133333337 0.0399999991 0.0133333337 0. 0.0133333337
      0.0666666701 0.0133333337 0. 0.0399999991 0.0133333337
      0.0399999991 0. 0. 0. 0.0399999991 0. 0.0266666673 0.0133333337
      0.0399999991 0.0399999991 0. 0.0399999991 0.0266666673
      0.0399999991 0.0266666673 0.0133333337 0.0533333346 0. 0.
      0.0399999991 0.0266666673 0. 0.0133333337 0.0399999991
      0.0133333337 0. 0.0799999982 0. 0. 0.0399999991</_>
    <_>
      0. 0. 0. 0. 0. 0. 0. 0. 0. 0. 0. 0. 0. 0. 0. 0. 0. 0. 0. 1. 0. 0.
      0. 0. 0. 0. 0. 0. 0. 0. 0. 0. 0. 0. 0. 0. 0. 0. 0. 0. 0. 0. 0. 0.
      0. 0. 0. 0. 0. 0.</_>
    <_>
      0. 0. 0. 0. 0. 0. 0. 0. 0. 0. 0. 0. 0. 0. 0. 0. 0. 0. 0. 0. 0. 0.
      0. 0. 0. 0.333333343 0. 0. 0. 0. 0. 0. 0. 0. 0. 0.333333343 0. 0.
      0. 0. 0. 0. 0.333333343 0. 0. 0. 0. 0. 0. 0.</_>
    <_>
      0. 0. 0. 0. 0. 0. 0. 0. 0. 0. 0. 0. 0. 0. 0. 0. 0. 0. 0. 0. 0. 0.
      0. 0. 0. 0. 0. 0. 0. 0. 0. 0. 0. 0. 0. 0. 0. 0.25 0. 0. 0. 0. 0.
      0.25 0. 0. 0. 0.25 0. 0.25</_>
    <_>
      0.0476190485 0.190476194 0.0476190485 0. 0.0476190485 0. 0. 0. 0.
      0. 0. 0. 0. 0. 0. 0. 0. 0. 0. 0.0476190485 0.0476190485 0. 0. 0.
      0.095238097 0. 0.0476190485 0. 0. 0. 0. 0. 0. 0.0476190485 0. 0.
      0.0476190485 0. 0. 0.142857149 0.0476190485 0. 0. 0. 0. 0. 0. 0.
      0.0476190485 0.095238097</_>
    <_>
      0. 0. 0. 0. 0. 0. 0. 0. 0. 0. 0. 0. 0. 0. 0. 0. 0. 0. 0.25 0.25 0.
      0. 0. 0. 0. 0. 0. 0. 0.25 0. 0. 0. 0. 0. 0. 0. 0. 0.25 0. 0. 0. 0.
      0. 0. 0. 0. 0. 0. 0. 0.</_>
    <_>
      0. 0. 0.166666672 0. 0. 0. 0. 0. 0. 0. 0. 0. 0. 0. 0. 0. 0. 0. 0.
      0. 0. 0. 0. 0. 0. 0. 0. 0.166666672 0. 0. 0. 0. 0. 0. 0.166666672
      0.166666672 0. 0. 0. 0.166666672 0. 0. 0. 0.166666672 0. 0. 0. 0.
      0. 0.</_>
    <_>
      0. 0.0769230798 0. 0. 0. 0. 0. 0. 0. 0. 0. 0. 0. 0. 0. 0. 0. 0. 0.
      0.0769230798 0.0769230798 0. 0. 0. 0.0769230798 0. 0. 0. 0. 0. 0.
      0. 0. 0.0769230798 0. 0. 0.0769230798 0. 0. 0.307692319 0. 0. 0.
      0. 0. 0. 0.230769247 0. 0. 0.</_>
    <_>
      0. 0.181818187 0.181818187 0. 0. 0. 0. 0. 0. 0. 0. 0. 0.0909090936
      0.0909090936 0. 0. 0. 0. 0. 0. 0. 0. 0. 0. 0. 0. 0. 0.
      0.0909090936 0. 0. 0. 0. 0. 0. 0. 0.181818187 0. 0. 0.181818187 0.
      0. 0. 0. 0. 0. 0. 0. 0. 0.</_>
    <_>
      0. 0. 0. 0. 0. 0. 0. 0. 0. 0. 0. 0. 0. 0. 0. 0. 0. 0. 0. 0. 0. 0.
      0. 0. 0. 0. 0. 0. 0. 0. 0. 0. 0. 0. 0. 1. 0. 0. 0. 0. 0. 0. 0. 0.
      0. 0. 0. 0. 0. 0.</_>
    <_>
      0.0454545468 0.0454545468 0.0909090936 0. 0. 0.0454545468 0. 0. 0.
      0. 0. 0. 0.0454545468 0. 0. 0.0909090936 0.0454545468 0.
      0.0909090936 0. 0.0909090936 0. 0.0909090936 0. 0. 0. 0. 0.
      0.0454545468 0. 0. 0. 0. 0. 0. 0. 0. 0. 0. 0. 0. 0. 0.
      0.0909090936 0. 0. 0.0454545468 0. 0.0909090936 0.0454545468</_>
    <_>
      0. 0. 0. 0. 0. 0. 0. 0. 0. 0. 0. 0. 0.125 0.375 0. 0. 0. 0. 0. 0.
      0. 0. 0. 0. 0. 0. 0. 0. 0. 0. 0. 0. 0. 0. 0. 0. 0. 0. 0. 0. 0. 0.
      0.25 0.125 0. 0. 0. 0. 0. 0.125</_>
    <_>
      0. 0. 0. 0. 0. 0. 0.25 0. 0. 0. 0. 0. 0. 0. 0. 0. 0. 0. 0. 0.25 0.
      0. 0. 0. 0. 0. 0. 0. 0. 0. 0. 0. 0. 0. 0. 0. 0. 0. 0. 0. 0. 0.25
      0. 0.25 0. 0. 0. 0. 0. 0.</_>
    <_>
      0. 0. 0. 0. 0. 0. 0. 0. 0. 0. 0. 0. 0. 0.285714298 0.142857149 0.
      0. 0. 0. 0.285714298 0. 0. 0. 0. 0. 0. 0. 0. 0. 0. 0. 0. 0. 0. 0.
      0. 0. 0. 0. 0. 0. 0.285714298 0. 0. 0. 0. 0. 0. 0. 0.</_>
    <_>
      0. 0. 0. 0.285714298 0. 0. 0. 0. 0. 0. 0. 0. 0. 0. 0. 0. 0. 0.
      0.142857149 0. 0. 0. 0. 0. 0. 0. 0. 0. 0. 0. 0. 0. 0. 0.
      0.142857149 0.142857149 0. 0.285714298 0. 0. 0. 0. 0. 0. 0. 0. 0.
      0. 0. 0.</_>
    <_>
      0.122448981 0.0816326514 0.0204081628 0.0204081628 0.0612244904
      0.0204081628 0.0204081628 0. 0. 0. 0.0204081628 0. 0. 0.
      0.0204081628 0.0816326514 0.0612244904 0. 0.0408163257
      0.0408163257 0. 0. 0.0612244904 0.0204081628 0.0204081628 0. 0.
      0.0204081628 0.0408163257 0.0408163257 0.0204081628 0. 0. 0. 0. 0.
      0. 0. 0. 0. 0. 0. 0. 0.0204081628 0. 0. 0.0612244904 0.
      0.0408163257 0.0408163257</_>
    <_>
      0. 0. 0. 0. 0. 0. 0. 0. 0. 0.142857149 0. 0. 0.142857149 0. 0. 0.
      0. 0. 0. 0. 0. 0. 0. 0. 0. 0. 0. 0. 0.142857149 0. 0. 0. 0. 0. 0.
      0. 0. 0. 0. 0. 0. 0. 0. 0.142857149 0. 0. 0. 0. 0. 0.428571463</_>
    <_>
      0. 0. 0. 0. 0. 0. 0. 0. 0. 0. 0. 0. 0.333333343 0.333333343 0. 0.
      0.166666672 0. 0. 0. 0. 0. 0. 0. 0. 0. 0. 0.166666672 0. 0. 0. 0.
      0. 0. 0. 0. 0. 0. 0. 0. 0. 0. 0. 0. 0. 0. 0. 0. 0. 0.</_>
    <_>
      0. 0. 0. 0.111111112 0. 0. 0. 0. 0. 0. 0. 0. 0. 0. 0. 0. 0. 0. 0.
      0. 0. 0. 0. 0. 0. 0.111111112 0. 0. 0. 0. 0. 0. 0. 0. 0. 0. 0.
      0.111111112 0. 0. 0. 0. 0. 0. 0.222222224 0. 0. 0.111111112 0.
      0.333333343</_>
    <_>
      0.0384615399 0.15384616 0. 0. 0. 0. 0.0192307699 0. 0.
      0.0384615399 0.0384615399 0.0384615399 0. 0. 0. 0.0576923117
      0.0192307699 0. 0. 0.0192307699 0.0384615399 0. 0. 0. 0.0192307699
      0. 0. 0.0769230798 0. 0.0384615399 0. 0. 0. 0. 0.0192307699
      0.0384615399 0.0961538479 0. 0. 0.0384615399 0.0384615399 0.
      0.0384615399 0.0769230798 0. 0. 0.0192307699 0. 0. 0.0384615399</_>
    <_>
      0. 0. 0. 0. 0. 0. 0. 0. 0. 0. 0. 0. 0. 0. 0. 0. 0. 0. 0. 0. 0. 0.
      0. 0. 0. 0. 0. 0. 0. 0. 0. 0. 0. 0. 0. 0. 0. 0. 0. 0. 0. 0. 0. 0.
      0. 1. 0. 0. 0. 0.</_>
    <_>
      0. 0. 0. 0. 0. 0. 0. 0. 0. 0. 0. 0. 0. 0. 0. 0. 0. 0. 0. 0.5 0. 0.
      0. 0. 0. 0. 0. 0. 0. 0. 0. 0. 0. 0. 0. 0. 0. 0. 0. 0. 0. 0. 0. 0.
      0. 0. 0. 0. 0.5 0.</_>
    <_>
      0. 0. 0. 0. 0. 0. 0. 0. 0. 0. 0. 0. 0. 0. 0. 0. 0. 0. 0. 1. 0. 0.
      0. 0. 0. 0. 0. 0. 0. 0. 0. 0. 0. 0. 0. 0. 0. 0. 0. 0. 0. 0. 0. 0.
      0. 0. 0. 0. 0. 0.</_>
    <_>
      0. 0. 0. 0. 0. 0. 0. 0. 0. 0. 0. 0. 0. 0. 0. 0. 0. 0. 0.
      0.333333343 0. 0. 0. 0. 0. 0. 0. 0. 0. 0. 0. 0. 0. 0. 0. 0. 0. 0.
      0. 0. 0. 0. 0. 0.333333343 0. 0. 0. 0.333333343 0. 0.</_>
    <_>
      0. 0. 0. 0. 0. 0. 0. 0. 0. 0. 0. 0. 0. 0.125 0. 0. 0.125 0. 0.
      0.375 0. 0. 0. 0. 0. 0. 0. 0.125 0. 0. 0. 0. 0. 0. 0. 0. 0. 0. 0.
      0.125 0. 0. 0. 0. 0. 0. 0. 0. 0. 0.125</_>
    <_>
      0.0344827585 0.0344827585 0.068965517 0. 0.0344827585 0.
      0.0344827585 0. 0.0344827585 0. 0.0344827585 0. 0. 0.0344827585 0.
      0.0344827585 0. 0. 0.0344827585 0.275862068 0. 0. 0. 0.
      0.0344827585 0. 0. 0.068965517 0.0344827585 0. 0. 0. 0. 0. 0. 0.
      0. 0. 0. 0. 0. 0. 0. 0.068965517 0. 0. 0.0344827585 0. 0.068965517
      0.0344827585</_>
    <_>
      0. 0. 0. 0. 0. 0. 0. 0. 0. 0. 0. 0. 0. 0. 0. 0. 0. 0. 0.200000003
      0. 0. 0. 0. 0. 0. 0. 0.200000003 0. 0.200000003 0. 0. 0. 0. 0.
      0.200000003 0.200000003 0. 0. 0. 0. 0. 0. 0. 0. 0. 0. 0. 0. 0. 0.</_>
    <_>
      0. 0. 0. 0. 0. 0. 0. 0. 0. 0. 0. 0. 0. 0. 0. 0. 0. 0. 0. 0. 0. 0.
      0. 0. 0. 0. 0. 0. 1. 0. 0. 0. 0. 0. 0. 0. 0. 0. 0. 0. 0. 0. 0. 0.
      0. 0. 0. 0. 0. 0.</_>
    <_>
      0. 0.0789473653 0.0263157897 0. 0.0263157897 0. 0. 0. 0.0263157897
      0.0263157897 0.0263157897 0. 0. 0. 0. 0. 0.0789473653 0.
      0.0263157897 0. 0. 0. 0. 0.0263157897 0. 0. 0. 0.157894731
      0.0526315793 0.0263157897 0. 0.0263157897 0. 0. 0. 0. 0.157894731
      0. 0. 0.131578952 0. 0. 0. 0. 0.0263157897 0. 0.0263157897 0.
      0.0526315793 0.</_>
    <_>
      0. 0. 0. 0. 0.181818187 0. 0. 0. 0. 0. 0.0909090936 0. 0. 0. 0. 0.
      0. 0. 0.0909090936 0. 0. 0. 0.272727281 0. 0. 0. 0. 0.
      0.0909090936 0.0909090936 0. 0. 0. 0. 0. 0. 0. 0. 0. 0. 0.
      0.0909090936 0. 0. 0. 0. 0. 0. 0.0909090936 0.</_>
    <_>
      0. 0. 0. 0. 0. 0. 0. 0. 0. 0. 0. 0. 0. 0. 0. 0. 0. 0. 0. 0. 0. 0.
      0. 0. 0. 0. 0. 0. 0. 0. 0. 0. 0. 0. 0. 0. 0. 0. 0. 0. 0. 0.5 0. 0.
      0. 0. 0. 0. 0. 0.5</_>
    <_>
      0. 0. 0. 0. 0. 0. 0. 0. 0. 0. 0. 0. 0. 0. 0. 0. 0.105263159 0. 0.
      0.0526315793 0. 0. 0. 0. 0.157894731 0. 0. 0.315789461 0. 0. 0. 0.
      0. 0. 0. 0. 0. 0. 0. 0.0526315793 0. 0. 0. 0. 0. 0. 0.0526315793
      0. 0.263157904 0.</_>
    <_>
      0. 0.0645161271 0.0322580636 0. 0.0322580636 0. 0. 0. 0.0322580636
      0. 0.0645161271 0.0645161271 0.0322580636 0. 0.0322580636 0.
      0.0645161271 0. 0. 0.0645161271 0. 0. 0. 0. 0.0322580636 0. 0.
      0.225806445 0. 0.0322580636 0. 0. 0. 0. 0. 0. 0. 0. 0. 0. 0. 0. 0.
      0.0322580636 0. 0. 0.0322580636 0. 0.0645161271 0.0967741907</_>
    <_>
      0. 0. 0. 0. 0. 0. 0. 0. 0. 0. 0. 0. 0. 0.25 0. 0. 0. 0. 0. 0. 0.
      0. 0. 0. 0. 0. 0. 0. 0. 0. 0. 0. 0. 0. 0. 0. 0. 0. 0. 0. 0.25 0.
      0. 0.25 0. 0. 0. 0. 0. 0.25</_>
    <_>
      0. 0. 0. 0. 0. 0. 0. 0. 0. 0. 0. 0. 0. 0. 0. 0. 0. 0. 0. 0. 0. 0.
      0. 0. 0. 0. 0. 0. 0. 0. 0. 0. 0. 0. 0. 0. 0. 0. 0. 0. 1. 0. 0. 0.
      0. 0. 0. 0. 0. 0.</_>
    <_>
      0. 0.285714298 0. 0. 0. 0. 0. 0. 0. 0. 0. 0. 0.0714285746
      0.0714285746 0. 0. 0.0714285746 0. 0.0714285746 0. 0.0714285746 0.
      0. 0. 0. 0. 0. 0. 0. 0.0714285746 0. 0. 0. 0. 0.0714285746
      0.0714285746 0. 0. 0. 0. 0. 0.0714285746 0.0714285746 0. 0. 0. 0.
      0. 0. 0.</_>
    <_>
      0. 0. 0.571428597 0. 0. 0. 0. 0. 0. 0. 0. 0. 0. 0. 0. 0.142857149
      0. 0. 0.142857149 0. 0. 0. 0. 0. 0. 0. 0. 0. 0.142857149 0. 0. 0.
      0. 0. 0. 0. 0. 0. 0. 0. 0. 0. 0. 0. 0. 0. 0. 0. 0. 0.</_>
    <_>
      0. 0. 0. 0. 0. 0. 0. 0. 0. 0. 0. 0. 0. 0. 0. 0. 0. 0. 0.5 0. 0. 0.
      0. 0. 0. 0. 0. 0. 0.5 0. 0. 0. 0. 0. 0. 0. 0. 0. 0. 0. 0. 0. 0. 0.
      0. 0. 0. 0. 0. 0.</_>
    <_>
      0. 0. 0. 0. 0. 0. 0. 0. 0. 0. 0. 0. 0. 0. 0. 0. 0. 0. 0.5 0. 0. 0.
      0. 0. 0. 0. 0. 0. 0.5 0. 0. 0. 0. 0. 0. 0. 0. 0. 0. 0. 0. 0. 0. 0.
      0. 0. 0. 0. 0. 0.</_>
    <_>
      0. 0.0588235296 0.117647059 0. 0. 0. 0. 0. 0. 0. 0. 0. 0. 0. 0. 0.
      0. 0. 0.117647059 0. 0.0588235296 0. 0. 0. 0.0588235296 0. 0. 0.
      0.0588235296 0. 0. 0. 0. 0. 0. 0. 0.235294119 0. 0. 0.0588235296
      0. 0. 0.0588235296 0. 0. 0. 0.0588235296 0. 0. 0.117647059</_>
    <_>
      0. 0. 0. 0. 0. 0. 0. 0. 0. 0. 0. 0. 0. 0. 0. 0. 0. 0. 0. 1. 0. 0.
      0. 0. 0. 0. 0. 0. 0. 0. 0. 0. 0. 0. 0. 0. 0. 0. 0. 0. 0. 0. 0. 0.
      0. 0. 0. 0. 0. 0.</_>
    <_>
      0. 0. 0. 0. 0. 0. 0. 0. 0. 0. 0. 0. 0. 0. 0. 0. 0. 0. 1. 0. 0. 0.
      0. 0. 0. 0. 0. 0. 0. 0. 0. 0. 0. 0. 0. 0. 0. 0. 0. 0. 0. 0. 0. 0.
      0. 0. 0. 0. 0. 0.</_>
    <_>
      0. 0. 0.25 0. 0. 0. 0. 0. 0. 0. 0. 0. 0. 0. 0. 0. 0. 0. 0. 0. 0.
      0. 0. 0. 0. 0. 0. 0. 0. 0. 0. 0. 0. 0. 0.75 0. 0. 0. 0. 0. 0. 0.
      0. 0. 0. 0. 0. 0. 0. 0.</_>
    <_>
      0. 0. 0. 0. 0. 0. 0. 0. 0. 0. 0. 0. 0. 0. 0. 0. 0. 0. 0.333333343
      0. 0. 0. 0. 0. 0. 0. 0. 0. 0. 0. 0. 0. 0. 0. 0.333333343
      0.333333343 0. 0. 0. 0. 0. 0. 0. 0. 0. 0. 0. 0. 0. 0.</_>
    <_>
      0. 0. 0.333333343 0. 0. 0. 0. 0. 0. 0. 0. 0. 0. 0. 0. 0. 0. 0. 0.
      0. 0. 0. 0. 0. 0. 0. 0. 0. 0. 0. 0. 0. 0. 0. 0. 0.333333343 0.
      0.333333343 0. 0. 0. 0. 0. 0. 0. 0. 0. 0. 0. 0.</_>
    <_>
      0. 0. 1. 0. 0. 0. 0. 0. 0. 0. 0. 0. 0. 0. 0. 0. 0. 0. 0. 0. 0. 0.
      0. 0. 0. 0. 0. 0. 0. 0. 0. 0. 0. 0. 0. 0. 0. 0. 0. 0. 0. 0. 0. 0.
      0. 0. 0. 0. 0. 0.</_>
    <_>
      0.0333333351 0.13333334 0. 0. 0. 0. 0.0333333351 0. 0.0333333351
      0. 0. 0. 0. 0.0333333351 0. 0. 0. 0. 0.0333333351 0.0333333351
      0.100000009 0. 0.0333333351 0. 0.0333333351 0. 0. 0. 0.0333333351
      0.0333333351 0. 0.0333333351 0. 0.0333333351 0.0333333351
      0.0333333351 0. 0.0666666701 0. 0. 0. 0.0333333351 0. 0.0666666701
      0. 0. 0.0666666701 0. 0. 0.0666666701</_>
    <_>
      0. 0. 0. 0.0833333358 0.25 0.166666672 0. 0. 0. 0. 0. 0. 0. 0.
      0.0833333358 0. 0. 0. 0.0833333358 0. 0. 0. 0.0833333358 0. 0. 0.
      0. 0. 0. 0.0833333358 0.0833333358 0. 0. 0. 0. 0.0833333358 0. 0.
      0. 0. 0. 0. 0. 0. 0. 0. 0. 0. 0. 0.</_>
    <_>
      0.200000003 0. 0. 0. 0. 0. 0. 0. 0. 0. 0. 0. 0. 0. 0. 0.200000003
      0. 0. 0. 0.400000006 0. 0. 0. 0. 0. 0. 0. 0. 0. 0. 0. 0. 0. 0. 0.
      0. 0. 0. 0. 0. 0. 0. 0. 0. 0. 0. 0. 0. 0.200000003 0.</_>
    <_>
      0. 0. 0.0799999982 0. 0. 0. 0. 0. 0. 0. 0. 0. 0.0399999991
      0.0799999982 0. 0.0399999991 0. 0. 0.0399999991 0. 0. 0.
      0.0799999982 0. 0. 0. 0. 0.0799999982 0.0399999991 0. 0.0399999991
      0. 0. 0. 0. 0.0399999991 0.0399999991 0. 0. 0. 0.0399999991 0.
      0.0399999991 0.159999996 0.0399999991 0. 0.0799999982 0. 0.
      0.0399999991</_>
    <_>
      0. 0. 0.125 0. 0.125 0. 0. 0. 0. 0. 0. 0. 0.1875 0.1875 0. 0. 0.
      0.0625 0.0625 0. 0. 0.0625 0. 0. 0. 0. 0. 0. 0.0625 0. 0.0625 0.
      0. 0. 0. 0. 0. 0. 0. 0. 0. 0. 0. 0.0625 0. 0. 0. 0. 0. 0.</_>
    <_>
      0. 0. 0. 0. 0. 0. 0. 0. 0. 0. 0. 0. 0. 0. 0. 0.200000003 0. 0.
      0.200000003 0. 0. 0. 0. 0. 0. 0. 0. 0. 0.200000003 0. 0. 0. 0.
      0.200000003 0.200000003 0. 0. 0. 0. 0. 0. 0. 0. 0. 0. 0. 0. 0. 0.
      0.</_>
    <_>
      0. 0. 0. 0. 0. 0. 0. 0. 0. 0. 0. 0. 0. 0. 0.200000003 0. 0. 0. 0.
      0.200000003 0. 0. 0. 0. 0. 0. 0. 0. 0. 0. 0. 0.200000003 0. 0. 0.
      0. 0. 0. 0. 0. 0. 0. 0. 0. 0. 0. 0.400000006 0. 0. 0.</_>
    <_>
      0. 0. 0. 0. 0. 0. 0. 0. 0. 0. 0. 0. 0. 0. 0. 0. 0. 0. 0.100000001
      0.200000003 0. 0. 0. 0. 0. 0. 0. 0.100000001 0.100000001
      0.100000001 0. 0. 0. 0. 0. 0. 0. 0. 0. 0. 0.200000003 0. 0.
      0.100000001 0. 0.100000001 0. 0. 0. 0.</_>
    <_>
      0. 0. 0. 0. 0. 0. 0. 0. 0. 0. 0. 0. 0. 0. 0. 0. 0. 0. 0. 0. 0. 0.
      0. 0. 0. 0. 0. 0. 1. 0. 0. 0. 0. 0. 0. 0. 0. 0. 0. 0. 0. 0. 0. 0.
      0. 0. 0. 0. 0. 0.</_>
    <_>
      0. 0. 0.333333343 0.166666672 0. 0.166666672 0. 0. 0. 0. 0. 0. 0.
      0. 0. 0. 0. 0. 0. 0. 0. 0. 0. 0. 0. 0. 0. 0. 0.166666672 0. 0. 0.
      0. 0. 0.166666672 0. 0. 0. 0. 0. 0. 0. 0. 0. 0. 0. 0. 0. 0. 0.</_>
    <_>
      0.0434782617 0.0652173907 0.0217391308 0. 0.0434782617 0. 0. 0.
      0.0434782617 0.0217391308 0. 0. 0. 0. 0.0217391308 0. 0.0869565234
      0.0434782617 0.0652173907 0. 0.0217391308 0. 0. 0. 0.0652173907 0.
      0. 0.0434782617 0.0217391308 0. 0. 0. 0. 0.0217391308 0. 0. 0. 0.
      0. 0. 0. 0. 0.0217391308 0.0217391308 0.0217391308 0. 0. 0.
      0.0217391308 0.282608688</_>
    <_>
      0. 0. 0. 0. 0. 0. 0. 0. 0. 0. 0. 0. 0. 0. 0. 0. 0. 0. 0.
      0.100000001 0. 0. 0. 0. 0. 0. 0.100000001 0.200000003 0. 0. 0.
      0.200000003 0. 0. 0. 0. 0. 0. 0. 0. 0. 0.100000001 0. 0.200000003
      0. 0. 0. 0. 0. 0.100000001</_>
    <_>
      0. 0. 0. 0. 0. 0. 0. 0. 0. 0. 0. 0. 0. 0.142857149 0.142857149 0.
      0. 0. 0. 0. 0. 0. 0. 0. 0. 0. 0. 0. 0. 0. 0. 0. 0. 0. 0. 0. 0. 0.
      0. 0. 0. 0. 0. 0.428571463 0. 0. 0. 0. 0. 0.285714298</_>
    <_>
      0. 0. 0. 0. 0. 0. 0. 0. 0. 0. 0. 0. 0. 0. 0. 0. 0. 0. 0.
      0.200000003 0. 0. 0. 0. 0.200000003 0. 0.200000003 0. 0. 0. 0. 0.
      0. 0. 0. 0. 0. 0. 0. 0. 0. 0. 0. 0.200000003 0. 0. 0. 0.200000003
      0. 0.</_>
    <_>
      0. 0. 0. 0. 0. 0. 0. 0. 0. 0. 0. 0. 0. 0. 0. 0. 0. 0. 0.
      0.200000003 0. 0. 0. 0. 0. 0. 0. 0. 0. 0.200000003 0. 0. 0. 0. 0.
      0. 0. 0. 0. 0. 0. 0. 0. 0.400000006 0. 0. 0. 0. 0. 0.200000003</_>
    <_>
      0. 0. 0. 0. 0. 0. 0. 0. 0. 0. 0. 0. 0. 0. 0. 0. 0. 0. 0.
      0.100000001 0. 0. 0. 0. 0. 0. 0. 0. 0. 0.200000003 0. 0. 0.
      0.100000001 0. 0. 0. 0. 0. 0. 0. 0. 0. 0.200000003 0. 0. 0.
      0.100000001 0. 0.300000012</_>
    <_>
      0. 0. 0. 0. 0. 0. 0. 0. 0. 0. 0. 0. 0. 0. 0. 0. 0. 0. 0.
      0.222222224 0. 0. 0. 0.111111112 0. 0. 0. 0. 0.111111112 0. 0. 0.
      0. 0. 0. 0. 0. 0. 0. 0. 0. 0. 0. 0.333333343 0. 0. 0. 0. 0.
      0.222222224</_>
    <_>
      0. 0. 0. 0. 0. 0. 0. 0. 0. 0. 0. 0. 0. 0. 0. 0. 0. 0. 0. 0. 0. 0.
      0. 0. 0. 0. 0. 0. 0. 0. 0. 0. 0. 0. 0. 0. 0. 0.166666672 0. 0. 0.
      0. 0. 0.5 0. 0.166666672 0. 0. 0. 0.166666672</_>
    <_>
      0. 0. 0. 0. 0. 0. 0. 0. 0.166666672 0. 0. 0. 0. 0. 0. 0. 0.
      0.166666672 0. 0. 0. 0. 0. 0. 0. 0. 0. 0. 0. 0. 0. 0. 0. 0. 0. 0.
      0. 0. 0. 0. 0. 0. 0. 0. 0. 0. 0. 0.166666672 0. 0.5</_>
    <_>
      0. 0. 0. 0. 0. 0. 0.333333343 0. 0. 0. 0. 0. 0. 0. 0. 0. 0. 0. 0.
      0.333333343 0. 0. 0. 0. 0. 0. 0. 0. 0. 0. 0. 0. 0. 0. 0. 0. 0. 0.
      0. 0. 0. 0. 0. 0. 0. 0. 0. 0. 0. 0.333333343</_>
    <_>
      0. 0. 0. 0. 0. 0. 0. 0. 0. 0. 0. 0. 0. 0. 0. 0. 0. 0. 0. 0.5 0. 0.
      0. 0. 0. 0. 0. 0. 0. 0. 0. 0. 0. 0. 0. 0. 0. 0. 0. 0. 0. 0.5 0. 0.
      0. 0. 0. 0. 0. 0.</_>
    <_>
      0. 0. 0. 0. 0. 0. 0.25 0. 0. 0. 0. 0. 0. 0. 0. 0. 0. 0. 0. 0.25 0.
      0. 0. 0. 0. 0. 0. 0. 0. 0. 0. 0. 0. 0. 0. 0. 0. 0.25 0. 0. 0.25 0.
      0. 0. 0. 0. 0. 0. 0. 0.</_>
    <_>
      0. 0. 0. 0.25 0. 0. 0. 0. 0.25 0. 0. 0. 0. 0. 0. 0. 0. 0. 0. 0. 0.
      0. 0. 0. 0. 0. 0. 0. 0. 0. 0. 0.25 0. 0. 0. 0. 0. 0.25 0. 0. 0. 0.
      0. 0. 0. 0. 0. 0. 0. 0.</_>
    <_>
      0. 0. 0. 0.25 0. 0. 0. 0. 0. 0. 0. 0. 0. 0. 0. 0. 0. 0. 0. 0.5 0.
      0. 0. 0. 0. 0. 0. 0. 0. 0. 0. 0. 0. 0. 0. 0. 0. 0.25 0. 0. 0. 0.
      0. 0. 0. 0. 0. 0. 0. 0.</_>
    <_>
      0. 0. 0. 0. 0. 0. 0. 0. 0. 0. 0. 0. 0. 0. 0. 0. 0.176470593 0.
      0.0588235296 0.117647059 0. 0. 0. 0. 0.235294119 0. 0. 0.117647059
      0.0588235296 0. 0. 0. 0. 0. 0. 0. 0. 0. 0. 0. 0. 0. 0.
      0.0588235296 0. 0. 0. 0. 0.117647059 0.0588235296</_>
    <_>
      0. 0. 0. 0. 0. 0. 0. 0. 0. 0. 0. 0. 0. 0. 0.5 0. 0. 0. 0. 0.5 0.
      0. 0. 0. 0. 0. 0. 0. 0. 0. 0. 0. 0. 0. 0. 0. 0. 0. 0. 0. 0. 0. 0.
      0. 0. 0. 0. 0. 0. 0.</_>
    <_>
      0. 0. 0.142857149 0. 0. 0. 0. 0. 0.142857149 0. 0. 0. 0. 0. 0. 0.
      0. 0. 0. 0. 0. 0. 0.142857149 0. 0. 0. 0. 0. 0.142857149
      0.142857149 0. 0. 0. 0. 0. 0. 0. 0. 0. 0. 0. 0. 0. 0.142857149 0.
      0. 0. 0. 0.142857149 0.</_>
    <_>
      0.0384615399 0.115384623 0. 0. 0.0384615399 0. 0.0384615399 0.
      0.0384615399 0. 0.0384615399 0.0384615399 0.0384615399
      0.0384615399 0. 0. 0.0384615399 0. 0.0384615399 0.0769230798
      0.0384615399 0. 0.0384615399 0. 0.0384615399 0. 0. 0. 0. 0. 0.
      0.0384615399 0.0384615399 0.0384615399 0.0384615399 0. 0.
      0.0384615399 0. 0. 0. 0. 0. 0.0769230798 0. 0. 0. 0. 0.0384615399
      0.</_>
    <_>
      0.0307692308 0.123076923 0.0769230798 0. 0.0153846154 0. 0. 0.
      0.0153846154 0.0461538471 0.0153846154 0. 0.0153846154 0. 0.
      0.0307692308 0.0307692308 0.0307692308 0.0615384616 0.0153846154
      0.0153846154 0. 0. 0. 0.0153846154 0. 0. 0.0307692308 0.0307692308
      0. 0. 0. 0. 0. 0.0307692308 0.0307692308 0.0461538471 0.0153846154
      0. 0.0153846154 0.0307692308 0. 0.0461538471 0.0769230798 0. 0. 0.
      0. 0.0153846154 0.0923076943</_>
    <_>
      0. 0. 0. 0. 0. 0. 0. 0. 0. 0. 0. 0. 0. 0. 0. 0. 0. 0. 0. 0. 0. 0.
      0.25 0. 0. 0. 0. 0. 0. 0. 0. 0. 0. 0. 0. 0. 0. 0.25 0. 0. 0. 0. 0.
      0.5 0. 0. 0. 0. 0. 0.</_>
    <_>
      0.142857149 0. 0. 0. 0. 0. 0. 0. 0. 0. 0. 0. 0. 0. 0. 0.142857149
      0.142857149 0. 0.142857149 0. 0. 0. 0.142857149 0. 0.142857149 0.
      0. 0. 0.142857149 0. 0. 0. 0. 0. 0. 0. 0. 0. 0. 0. 0. 0. 0. 0. 0.
      0. 0. 0. 0. 0.</_>
    <_>
      0. 0. 0. 0.0769230798 0. 0. 0. 0. 0. 0. 0. 0. 0. 0. 0. 0. 0. 0. 0.
      0. 0. 0. 0. 0.15384616 0. 0. 0. 0.307692319 0. 0. 0. 0.0769230798
      0. 0. 0. 0. 0. 0.0769230798 0. 0. 0. 0. 0. 0. 0. 0. 0.0769230798
      0. 0.230769247 0.</_>
    <_>
      0. 0. 0. 0. 0. 0. 0. 0. 0. 0. 0. 0. 0. 0. 0. 0. 0. 0. 0. 0.25 0.
      0. 0. 0. 0. 0. 0. 0.125 0. 0. 0. 0. 0. 0.125 0.125 0. 0.125 0. 0.
      0. 0. 0.125 0. 0. 0.125 0. 0. 0. 0. 0.</_>
    <_>
      0. 0. 0. 0. 0. 0. 0. 0. 0. 0. 0. 0. 0. 0. 0. 0. 0. 0. 0.
      0.666666687 0. 0. 0. 0. 0. 0. 0. 0. 0. 0. 0. 0. 0. 0. 0. 0. 0. 0.
      0. 0. 0. 0. 0. 0. 0. 0. 0. 0. 0.333333343 0.</_>
    <_>
      0. 0. 0. 0. 0. 0. 0. 0. 0. 0. 0. 0. 0. 0. 0. 0. 0. 0. 0.
      0.0769230798 0.15384616 0. 0. 0.0769230798 0.0769230798 0. 0.
      0.15384616 0. 0. 0. 0. 0. 0.0769230798 0. 0. 0.15384616
      0.0769230798 0. 0. 0. 0. 0. 0. 0. 0. 0. 0.0769230798 0.0769230798
      0.</_>
    <_>
      0. 0. 0. 0. 0. 0. 0.100000001 0. 0. 0. 0. 0. 0. 0. 0. 0.
      0.100000001 0. 0. 0. 0.100000001 0. 0. 0. 0. 0.200000003 0. 0. 0.
      0. 0. 0. 0. 0. 0. 0. 0. 0.100000001 0.100000001 0. 0. 0.
      0.100000001 0. 0. 0. 0.100000001 0.100000001 0. 0.</_>
    <_>
      0. 0.0714285746 0. 0. 0. 0. 0. 0. 0. 0. 0. 0. 0. 0. 0.0714285746
      0. 0.0714285746 0. 0. 0.142857149 0.0714285746 0. 0. 0.142857149
      0.0714285746 0. 0. 0. 0. 0. 0. 0. 0. 0.0714285746 0. 0.
      0.0714285746 0.0714285746 0. 0. 0. 0. 0. 0. 0. 0. 0.0714285746 0.
      0. 0.0714285746</_>
    <_>
      0. 0.0799999982 0. 0.0399999991 0.0799999982 0. 0. 0. 0.0399999991
      0.0399999991 0. 0. 0. 0. 0.0799999982 0.0399999991 0.0399999991 0.
      0. 0.0799999982 0.0399999991 0. 0. 0. 0.0399999991 0.0399999991 0.
      0.0399999991 0. 0. 0.0399999991 0. 0. 0. 0. 0. 0. 0.0399999991 0.
      0. 0. 0.0399999991 0.0399999991 0. 0. 0. 0.0399999991 0. 0.
      0.119999997</_>
    <_>
      0.0333333351 0.0333333351 0. 0. 0.0666666701 0. 0. 0. 0.0333333351
      0.0333333351 0. 0. 0. 0. 0.100000009 0.0666666701 0.0333333351 0.
      0. 0.0666666701 0.0333333351 0. 0.0333333351 0.0333333351
      0.0666666701 0. 0. 0. 0. 0.0333333351 0. 0. 0. 0. 0. 0.0333333351
      0.0666666701 0.0333333351 0. 0. 0. 0.0333333351 0. 0.0333333351 0.
      0. 0. 0.0333333351 0. 0.100000009</_>
    <_>
      0.0294117648 0.0294117648 0.0588235296 0. 0.0588235296
      0.0294117648 0. 0. 0. 0. 0. 0. 0.0294117648 0. 0.0882352963
      0.0294117648 0. 0. 0.0294117648 0.0882352963 0.0882352963 0. 0.
      0.0588235296 0.0588235296 0. 0. 0. 0. 0. 0. 0. 0. 0.0294117648
      0.0294117648 0.0294117648 0.0588235296 0. 0. 0. 0. 0. 0. 0. 0. 0.
      0. 0. 0.0588235296 0.117647059</_>
    <_>
      0.0909090936 0.0909090936 0.0151515156 0.0606060624 0.
      0.0151515156 0. 0. 0. 0. 0. 0.0151515156 0. 0. 0.0303030312
      0.0606060624 0.0454545468 0. 0.0454545468 0.0454545468
      0.0151515156 0.0303030312 0.0151515156 0.0151515156 0.0303030312
      0.0303030312 0. 0. 0.0303030312 0.0303030312 0. 0.0151515156 0.
      0.0151515156 0.0151515156 0.0303030312 0.0606060624 0. 0. 0.
      0.0151515156 0. 0. 0.0151515156 0. 0. 0.0454545468 0. 0.0151515156
      0.0606060624</_>
    <_>
      0.0357142873 0. 0.107142866 0. 0. 0. 0. 0. 0. 0.142857149 0. 0.
      0.0357142873 0. 0. 0.0357142873 0. 0. 0.0714285746 0. 0.0714285746
      0. 0.0357142873 0.0357142873 0.0714285746 0. 0. 0. 0.0714285746 0.
      0. 0. 0. 0. 0.0357142873 0. 0.0357142873 0. 0. 0. 0.0357142873 0.
      0. 0. 0.0714285746 0. 0.0357142873 0. 0. 0.0714285746</_>
    <_>
      0. 0. 0. 0. 0. 0. 0. 0. 0. 0. 0.25 0. 0. 0. 0. 0. 0. 0.25 0. 0. 0.
      0. 0. 0. 0. 0. 0. 0. 0. 0. 0.25 0. 0. 0. 0. 0. 0. 0.25 0. 0. 0. 0.
      0. 0. 0. 0. 0. 0. 0. 0.</_>
    <_>
      0. 0. 0. 0. 0. 0. 0. 0. 0. 0. 0. 0. 0. 0. 0. 0. 0. 0. 0.
      0.333333343 0. 0. 0. 0. 0. 0. 0. 0. 0. 0. 0. 0. 0. 0. 0. 0. 0. 0.
      0. 0. 0. 0.333333343 0. 0.333333343 0. 0. 0. 0. 0. 0.</_>
    <_>
      0. 0. 0. 0. 0. 0. 0. 0. 0. 0. 0.25 0. 0. 0. 0. 0.25 0. 0. 0. 0. 0.
      0. 0. 0. 0. 0. 0. 0. 0. 0. 0. 0. 0. 0. 0. 0. 0. 0. 0.25 0. 0. 0.
      0. 0. 0. 0. 0. 0. 0.25 0.</_>
    <_>
      0. 0. 0. 0. 0. 0. 0. 0. 0. 0. 0. 0. 0. 0. 0.333333343 0. 0. 0. 0.
      0. 0. 0. 0. 0. 0. 0. 0. 0. 0. 0. 0. 0. 0. 0. 0. 0. 0. 0. 0. 0. 0.
      0. 0. 0. 0. 0.666666687 0. 0. 0. 0.</_>
    <_>
      0. 0. 0.333333343 0. 0. 0. 0. 0. 0. 0. 0. 0. 0. 0. 0. 0. 0. 0. 0.
      0. 0. 0. 0. 0. 0. 0. 0. 0. 0.333333343 0. 0. 0. 0. 0. 0. 0. 0. 0.
      0. 0. 0. 0. 0. 0.333333343 0. 0. 0. 0. 0. 0.</_>
    <_>
      0. 0. 0. 0. 0. 0. 0. 0. 0. 0. 0. 0. 0. 0. 0. 0. 0. 0. 0.
      0.600000024 0. 0. 0. 0. 0. 0. 0. 0. 0. 0. 0. 0. 0. 0. 0. 0. 0. 0.
      0. 0. 0. 0.200000003 0. 0.200000003 0. 0. 0. 0. 0. 0.</_>
    <_>
      0. 0. 0. 0. 0. 0. 0.25 0. 0. 0. 0. 0. 0. 0. 0. 0. 0. 0. 0.25 0. 0.
      0. 0. 0. 0. 0. 0. 0. 0. 0. 0. 0. 0. 0. 0. 0. 0. 0. 0. 0. 0. 0. 0.
      0. 0. 0. 0. 0.25 0. 0.25</_>
    <_>
      0. 0. 0. 0. 0. 0. 0. 0. 0. 0. 0. 0. 0. 0. 0. 0. 0. 0. 0. 0.5 0. 0.
      0. 0. 0. 0. 0. 0. 0. 0. 0. 0. 0. 0. 0. 0. 0. 0. 0. 0. 0. 0.5 0. 0.
      0. 0. 0. 0. 0. 0.</_>
    <_>
      0. 0. 0. 0. 0. 0. 0. 0. 0. 0. 0. 0. 0. 0.166666672 0. 0. 0. 0. 0.
      0.166666672 0. 0. 0. 0. 0.166666672 0. 0. 0.166666672 0. 0. 0. 0.
      0. 0. 0. 0. 0. 0. 0. 0. 0. 0. 0. 0.166666672 0. 0.166666672 0. 0.
      0. 0.</_>
    <_>
      0. 0.1875 0.0625 0. 0. 0. 0.0416666679 0. 0. 0.0625 0. 0.020833334
      0.020833334 0.020833334 0. 0. 0.0625 0.020833334 0.020833334
      0.020833334 0.0416666679 0. 0. 0. 0.0625 0. 0. 0. 0.020833334 0.
      0. 0.0416666679 0. 0.020833334 0.0625 0. 0.020833334 0. 0.
      0.020833334 0.0625 0. 0.020833334 0. 0. 0. 0.0416666679
      0.020833334 0. 0.020833334</_>
    <_>
      0.0303030312 0.151515156 0.0151515156 0.0454545468 0.0303030312 0.
      0. 0. 0.0151515156 0.0606060624 0. 0.0303030312 0.0151515156 0.
      0.0454545468 0. 0. 0. 0.0303030312 0.0303030312 0.0151515156 0.
      0.0151515156 0. 0. 0. 0.0151515156 0.0151515156 0. 0. 0.0151515156
      0.0151515156 0. 0.0151515156 0.0151515156 0. 0.106060609
      0.0151515156 0. 0.0151515156 0. 0. 0.0303030312 0.0606060624
      0.0454545468 0.0151515156 0.0303030312 0. 0. 0.0606060624</_>
    <_>
      0. 0. 0. 0. 0. 0. 0. 0. 0. 0. 0. 0. 0. 0. 0. 0. 0. 0. 0. 0. 0. 0.
      0. 0. 0. 0. 0. 0. 0. 0. 0. 0. 0. 0. 0. 0. 0. 0.25 0. 0. 0. 0. 0.
      0.25 0.5 0. 0. 0. 0. 0.</_>
    <_>
      0. 0. 0. 0. 0. 0. 0. 0. 0. 0. 0. 0. 0. 0. 0. 0. 0. 0. 0.
      0.333333343 0.333333343 0. 0. 0. 0. 0. 0. 0. 0. 0. 0. 0. 0. 0. 0.
      0. 0. 0. 0. 0. 0. 0.333333343 0. 0. 0. 0. 0. 0. 0. 0.</_>
    <_>
      0.0416666679 0. 0.125 0.0416666679 0.0416666679 0. 0.0416666679 0.
      0.0416666679 0. 0. 0. 0. 0. 0. 0. 0.0416666679 0. 0.291666687 0.
      0.0416666679 0. 0.0416666679 0. 0. 0. 0. 0. 0.125 0. 0. 0. 0. 0.
      0. 0.0416666679 0.0416666679 0. 0. 0.0416666679 0. 0. 0. 0. 0. 0.
      0. 0. 0. 0.</_>
    <_>
      0.111111112 0. 0. 0. 0. 0. 0. 0. 0. 0. 0. 0. 0. 0. 0. 0.111111112
      0. 0. 0.222222224 0.111111112 0.111111112 0. 0. 0. 0. 0. 0. 0.
      0.111111112 0. 0. 0. 0. 0. 0. 0.111111112 0. 0. 0. 0. 0. 0. 0. 0.
      0. 0. 0. 0.111111112 0. 0.</_>
    <_>
      0. 0. 0. 0. 0. 0. 0. 0. 0. 0. 0. 0. 0. 0. 0. 0.25 0. 0. 0. 0.25 0.
      0. 0. 0. 0. 0. 0. 0. 0. 0. 0. 0. 0. 0. 0.25 0. 0. 0. 0. 0. 0. 0.
      0. 0. 0.25 0. 0. 0. 0. 0.</_>
    <_>
      0. 0.200000018 0.0666666701 0. 0. 0. 0. 0. 0. 0. 0. 0. 0. 0. 0. 0.
      0. 0. 0.0666666701 0. 0. 0. 0. 0. 0.0666666701 0. 0. 0. 0.13333334
      0. 0. 0. 0. 0. 0. 0. 0.200000018 0. 0. 0.0666666701 0. 0.
      0.0666666701 0. 0.0666666701 0. 0.0666666701 0. 0. 0.</_>
    <_>
      0. 0. 0. 0. 0. 0. 0. 0. 0. 0. 0. 0. 0. 0. 0. 0. 0. 0. 0. 0. 0. 0.
      0. 0. 0. 0. 0. 0. 0. 0.166666672 0. 0. 0. 0. 0. 0. 0. 0. 0. 0. 0.
      0. 0. 0. 0. 0. 0. 0. 0. 0.833333373</_>
    <_>
      0. 0.125 0. 0. 0. 0. 0. 0. 0. 0. 0. 0.125 0. 0. 0.125 0. 0. 0. 0.
      0. 0.125 0. 0. 0. 0. 0. 0. 0. 0.125 0. 0. 0. 0. 0. 0. 0. 0.125 0.
      0. 0.125 0. 0. 0. 0. 0. 0. 0.125 0. 0. 0.</_>
    <_>
      0. 0. 0.0625 0. 0.0625 0. 0. 0. 0.125 0. 0. 0. 0. 0. 0. 0. 0.0625
      0. 0.125 0.125 0. 0. 0. 0. 0. 0. 0. 0.0625 0.0625 0. 0. 0. 0. 0.
      0. 0. 0. 0. 0. 0.0625 0. 0.125 0. 0. 0. 0. 0. 0. 0.125 0.</_>
    <_>
      0. 0. 0. 0. 0. 0. 0. 0. 0. 0. 0. 0. 0. 0. 0. 0. 0. 0. 0. 0. 0.25
      0. 0.25 0. 0. 0.25 0. 0. 0. 0. 0. 0. 0. 0. 0. 0. 0. 0. 0.25 0. 0.
      0. 0. 0. 0. 0. 0. 0. 0. 0.</_>
    <_>
      0. 0. 0. 0. 0. 0. 0. 0. 0. 0. 0. 0. 0. 0. 0. 0. 0. 0. 0. 0. 0. 0.
      0.333333343 0. 0. 0. 0. 0. 0. 0. 0. 0. 0. 0. 0. 0. 0. 0.
      0.666666687 0. 0. 0. 0. 0. 0. 0. 0. 0. 0. 0.</_>
    <_>
      0. 0. 0. 0. 0. 0. 0. 0. 0. 0. 0. 0. 0. 0. 0. 0. 0. 0. 0. 0. 0. 0.
      0.333333343 0. 0. 0.333333343 0. 0. 0. 0. 0. 0. 0. 0. 0. 0. 0. 0.
      0.333333343 0. 0. 0. 0. 0. 0. 0. 0. 0. 0. 0.</_>
    <_>
      0.25 0. 0. 0. 0. 0. 0. 0. 0. 0. 0. 0. 0. 0. 0. 0. 0. 0. 0. 0. 0.
      0. 0.25 0. 0. 0.25 0. 0. 0. 0. 0. 0. 0. 0. 0. 0. 0. 0. 0.25 0. 0.
      0. 0. 0. 0. 0. 0. 0. 0. 0.</_>
    <_>
      0. 0. 0. 0. 0. 0. 0. 0. 0. 0. 0. 0. 0. 0. 0. 0. 0. 0. 0. 0. 0. 0.
      0.5 0. 0. 0. 0. 0. 0. 0. 0. 0. 0. 0. 0. 0. 0. 0. 0.5 0. 0. 0. 0.
      0. 0. 0. 0. 0. 0. 0.</_>
    <_>
      0. 0. 0. 0. 0. 0. 0. 0. 0. 0. 0. 0. 0. 0. 0. 0. 0. 0. 0.25 0. 0.
      0. 0. 0. 0. 0. 0. 0. 0. 0. 0. 0. 0. 0. 0. 0. 0. 0. 0.25 0. 0. 0.25
      0. 0. 0. 0. 0.25 0. 0. 0.</_>
    <_>
      0. 0. 0. 0. 0. 0. 0. 0. 0. 0. 0. 0. 0. 0. 0. 0. 0. 0. 0. 0. 0. 0.
      0. 0. 0. 0. 0. 0. 0. 0. 0. 0. 0. 0. 0. 0. 0. 0. 0. 0. 0. 0. 0. 0.
      0. 0. 1. 0. 0. 0.</_>
    <_>
      0.0625 0. 0. 0. 0.0625 0. 0. 0. 0. 0.0625 0.0625 0. 0. 0. 0.0625
      0. 0. 0. 0. 0.125 0.0625 0. 0. 0. 0.0625 0. 0. 0.0625 0.0625 0. 0.
      0. 0. 0. 0. 0. 0. 0.0625 0. 0. 0.125 0. 0. 0. 0. 0. 0.0625 0.
      0.0625 0.</_>
    <_>
      0. 0. 0. 0. 0. 0. 0. 0. 0. 0.200000003 0. 0. 0. 0. 0. 0. 0. 0. 0.
      0. 0. 0. 0. 0. 0. 0.200000003 0. 0. 0.200000003 0. 0. 0. 0. 0. 0.
      0. 0. 0. 0. 0.200000003 0. 0. 0. 0. 0. 0. 0.200000003 0. 0. 0.</_>
    <_>
      0. 0. 0. 0. 0. 0. 0. 0.5 0. 0. 0. 0. 0. 0. 0. 0. 0. 0. 0. 0. 0. 0.
      0. 0. 0. 0. 0. 0. 0. 0. 0. 0. 0. 0. 0. 0. 0. 0. 0. 0. 0. 0. 0. 0.
      0. 0. 0.5 0. 0. 0.</_>
    <_>
      0. 0. 0. 0. 0. 0. 0. 0. 0. 0. 0. 0. 0. 0. 0. 0. 0. 0. 0. 0. 0. 0.
      0. 0. 0. 0. 0. 0. 0. 0. 0. 0. 0. 0. 0. 0. 0. 0. 0. 0.5 0. 0. 0. 0.
      0. 0. 0.5 0. 0. 0.</_>
    <_>
      0. 0. 0. 0. 0. 0. 0. 0. 0. 0. 0. 0. 0. 0. 0. 0. 0. 0. 0. 0. 0. 0.
      0. 0. 0. 0. 0. 0. 0. 0. 0. 0. 0. 0. 0. 0. 1. 0. 0. 0. 0. 0. 0. 0.
      0. 0. 0. 0. 0. 0.</_>
    <_>
      0. 0. 0. 0. 0. 0. 0. 0. 0. 0. 0. 0. 0. 0. 0. 0. 0. 0. 0. 0.
      0.333333343 0. 0. 0. 0. 0. 0. 0. 0. 0. 0. 0. 0. 0. 0. 0.
      0.333333343 0. 0. 0.333333343 0. 0. 0. 0. 0. 0. 0. 0. 0. 0.</_>
    <_>
      0.100000001 0. 0. 0.300000012 0. 0.100000001 0. 0. 0. 0. 0. 0. 0.
      0.100000001 0. 0. 0. 0. 0.100000001 0. 0. 0.100000001 0. 0. 0. 0.
      0. 0. 0.100000001 0. 0. 0. 0. 0. 0. 0. 0. 0. 0. 0. 0. 0. 0. 0. 0.
      0. 0. 0.100000001 0. 0.</_>
    <_>
      0. 0. 0. 0. 0. 0. 0. 0. 0. 0. 0. 0. 0. 0. 0. 0. 0. 0. 0.
      0.200000003 0. 0. 0. 0. 0. 0. 0. 0. 0.200000003 0.200000003 0. 0.
      0. 0. 0. 0. 0. 0. 0. 0. 0.200000003 0. 0. 0. 0. 0. 0. 0.200000003
      0. 0.</_>
    <_>
      0. 0. 0. 0. 0. 0. 0. 0. 0. 0. 0. 0. 0. 0. 0. 0. 0. 0. 0. 0. 0. 0.
      0. 0. 0. 0. 0. 0.5 0. 0. 0. 0. 0. 0. 0. 0. 0. 0. 0. 0. 0. 0. 0. 0.
      0. 0. 0. 0. 0.5 0.</_>
    <_>
      0. 0.200000003 0. 0. 0. 0. 0. 0. 0. 0. 0.200000003 0. 0. 0. 0. 0.
      0.100000001 0. 0. 0.400000006 0. 0. 0. 0. 0. 0. 0. 0. 0.
      0.100000001 0. 0. 0. 0. 0. 0. 0. 0. 0. 0. 0. 0. 0. 0. 0. 0. 0. 0.
      0. 0.</_>
    <_>
      0. 0.0833333358 0.166666672 0. 0. 0. 0. 0. 0. 0.166666672 0. 0. 0.
      0. 0. 0. 0. 0. 0.0833333358 0. 0.0833333358 0. 0. 0. 0. 0. 0. 0.
      0. 0. 0. 0. 0. 0. 0. 0. 0.166666672 0. 0. 0. 0. 0. 0.0833333358 0.
      0.0833333358 0. 0.0833333358 0. 0. 0.</_>
    <_>
      0. 0. 0.0526315793 0. 0. 0. 0. 0. 0. 0. 0.105263159 0. 0. 0.
      0.0526315793 0. 0.105263159 0. 0. 0.210526317 0. 0. 0.105263159 0.
      0. 0. 0. 0. 0. 0.105263159 0. 0. 0. 0. 0. 0.0526315793 0. 0. 0. 0.
      0. 0.0526315793 0. 0. 0. 0. 0. 0. 0.105263159 0.0526315793</_>
    <_>
      0. 0.100000001 0. 0. 0. 0. 0. 0. 0. 0. 0. 0. 0. 0. 0. 0. 0. 0. 0.
      0. 0. 0. 0. 0. 0. 0. 0. 0.300000012 0. 0. 0. 0. 0. 0. 0.
      0.100000001 0. 0. 0. 0. 0. 0. 0. 0. 0. 0. 0. 0. 0.5 0.</_>
    <_>
      0. 0. 0. 0.333333343 0. 0. 0. 0. 0. 0. 0. 0. 0. 0. 0. 0. 0. 0. 0.
      0. 0. 0. 0. 0. 0. 0. 0. 0. 0. 0. 0. 0. 0. 0. 0. 0. 0. 0.666666687
      0. 0. 0. 0. 0. 0. 0. 0. 0. 0. 0. 0.</_>
    <_>
      0. 0. 0. 0.142857149 0. 0.142857149 0. 0. 0. 0. 0. 0. 0. 0. 0. 0.
      0. 0. 0. 0. 0. 0. 0. 0. 0. 0. 0. 0. 0.428571463 0. 0. 0. 0. 0. 0.
      0. 0. 0. 0. 0. 0. 0. 0. 0. 0.142857149 0. 0. 0. 0.142857149 0.</_>
    <_>
      0. 0. 0. 0.0625 0. 0. 0. 0. 0. 0. 0. 0. 0. 0.0625 0. 0. 0.0625 0.
      0. 0. 0. 0. 0. 0.0625 0.0625 0. 0. 0.3125 0. 0. 0. 0. 0. 0.0625 0.
      0. 0. 0. 0. 0. 0. 0. 0. 0.125 0. 0. 0. 0.0625 0.125 0.</_>
    <_>
      0.0370370373 0. 0. 0. 0.0370370373 0. 0. 0. 0.0370370373 0.
      0.0740740746 0. 0.0370370373 0.0370370373 0. 0. 0. 0.0370370373 0.
      0.0370370373 0.0740740746 0. 0. 0. 0.0370370373 0. 0.0370370373
      0.111111112 0. 0. 0.0370370373 0. 0. 0. 0. 0. 0. 0.0740740746 0.
      0. 0. 0. 0. 0.111111112 0. 0. 0.0370370373 0. 0.0370370373
      0.111111112</_>
    <_>
      0. 0. 0. 0. 0. 0. 0. 0. 0. 0. 0. 0. 0. 0. 0. 0. 0. 0. 0. 0. 0. 0.
      0. 0. 0. 0. 0. 0. 0. 0. 0. 0. 0. 0. 0. 0. 0. 0. 0. 0. 0. 0.5 0. 0.
      0. 0. 0. 0.5 0. 0.</_>
    <_>
      0. 0. 0. 0. 0.333333343 0. 0. 0. 0. 0. 0. 0. 0. 0. 0. 0. 0. 0. 0.
      0. 0. 0. 0. 0. 0. 0. 0. 0. 0. 0. 0. 0. 0. 0.333333343 0. 0. 0. 0.
      0. 0. 0. 0. 0. 0. 0. 0. 0. 0. 0. 0.333333343</_>
    <_>
      0. 0. 0.1875 0. 0. 0. 0. 0. 0. 0. 0. 0. 0. 0. 0. 0.125 0. 0. 0.25
      0. 0. 0. 0. 0. 0. 0. 0. 0.0625 0.3125 0. 0. 0.0625 0. 0. 0. 0. 0.
      0. 0. 0. 0. 0. 0. 0. 0. 0. 0. 0. 0. 0.</_>
    <_>
      0. 0. 0. 0. 0. 0. 0. 0. 0. 0. 0. 0. 0. 0. 0. 0. 0. 0. 0. 0.5 0. 0.
      0. 0. 0.5 0. 0. 0. 0. 0. 0. 0. 0. 0. 0. 0. 0. 0. 0. 0. 0. 0. 0. 0.
      0. 0. 0. 0. 0. 0.</_>
    <_>
      0. 0. 0. 0. 0.142857149 0. 0. 0. 0. 0. 0. 0. 0. 0. 0. 0. 0. 0. 0.
      0.285714298 0. 0. 0. 0. 0.142857149 0. 0. 0. 0. 0. 0. 0. 0. 0. 0.
      0. 0. 0. 0. 0. 0. 0.142857149 0. 0.142857149 0. 0.142857149 0. 0.
      0. 0.</_>
    <_>
      0. 0. 0.142857149 0. 0. 0. 0. 0. 0. 0. 0. 0. 0. 0. 0. 0. 0. 0.
      0.142857149 0. 0. 0. 0. 0. 0.142857149 0. 0. 0. 0. 0. 0. 0. 0. 0.
      0. 0. 0.285714298 0. 0. 0. 0. 0. 0. 0.142857149 0. 0. 0. 0. 0.
      0.142857149</_>
    <_>
      0. 0.046875 0.03125 0.015625 0. 0. 0.015625 0.015625 0. 0.0625 0.
      0.015625 0. 0. 0.015625 0.078125 0. 0. 0.03125 0.03125 0.046875 0.
      0.03125 0. 0. 0.03125 0.015625 0. 0.015625 0.046875 0. 0.046875 0.
      0.03125 0.03125 0.015625 0. 0. 0. 0. 0.03125 0. 0.015625 0.09375
      0. 0. 0.0625 0. 0.03125 0.09375</_>
    <_>
      0. 0. 0. 0.333333343 0. 0. 0. 0. 0. 0. 0. 0. 0. 0. 0. 0. 0. 0. 0.
      0. 0. 0. 0. 0. 0. 0. 0.166666672 0. 0. 0. 0. 0.166666672 0. 0. 0.
      0. 0. 0.333333343 0. 0. 0. 0. 0. 0. 0. 0. 0. 0. 0. 0.</_>
    <_>
      0. 0. 0. 0. 0. 0. 0. 0. 0. 0. 0. 0. 0. 0. 0. 0. 0. 0. 0.666666687
      0. 0. 0. 0. 0. 0. 0. 0. 0. 0. 0. 0. 0. 0. 0. 0.333333343 0. 0. 0.
      0. 0. 0. 0. 0. 0. 0. 0. 0. 0. 0. 0.</_>
    <_>
      0. 0. 0. 0.111111112 0. 0. 0. 0. 0. 0. 0. 0. 0. 0. 0. 0. 0. 0. 0.
      0. 0. 0.222222224 0. 0. 0. 0.111111112 0. 0.111111112 0.111111112
      0. 0. 0. 0. 0. 0. 0.111111112 0.111111112 0.111111112 0. 0. 0. 0.
      0. 0. 0. 0. 0. 0. 0. 0.</_>
    <_>
      0. 0. 0. 0.100000001 0. 0. 0. 0. 0. 0. 0. 0. 0. 0. 0.100000001 0.
      0.100000001 0. 0. 0. 0. 0.100000001 0. 0.100000001 0.100000001 0.
      0. 0. 0. 0. 0. 0. 0. 0. 0. 0. 0.200000003 0.100000001 0. 0. 0. 0.
      0. 0. 0. 0. 0. 0. 0. 0.100000001</_>
    <_>
      0. 0. 0. 0. 0. 0. 0. 0. 0. 0. 0. 0. 0. 0.111111112 0. 0.
      0.222222224 0. 0. 0. 0. 0. 0. 0.111111112 0. 0. 0. 0. 0. 0. 0. 0.
      0. 0. 0. 0. 0.222222224 0. 0. 0. 0. 0. 0. 0. 0. 0. 0.222222224 0.
      0. 0.111111112</_>
    <_>
      0. 0.0434782617 0. 0. 0. 0. 0. 0. 0. 0.0434782617 0. 0.0434782617
      0. 0. 0. 0. 0. 0. 0.130434781 0. 0.0434782617 0. 0.0434782617 0.
      0.0434782617 0. 0. 0.217391312 0.0869565234 0.0434782617 0. 0.
      0.0434782617 0. 0. 0. 0.0869565234 0. 0. 0. 0. 0. 0.0869565234 0.
      0. 0. 0. 0. 0.0434782617 0.</_>
    <_>
      0. 0.0625 0. 0. 0. 0. 0. 0. 0. 0. 0. 0. 0. 0. 0. 0. 0. 0. 0. 0.
      0.125 0. 0. 0. 0. 0. 0. 0. 0. 0. 0. 0. 0. 0. 0.0625 0. 0.3125 0.
      0. 0.0625 0. 0. 0.0625 0. 0.125 0. 0.1875 0. 0. 0.</_>
    <_>
      0.0357142873 0.0714285746 0. 0. 0. 0. 0. 0. 0. 0. 0. 0. 0. 0.
      0.107142866 0.107142866 0.0357142873 0. 0. 0.107142866
      0.0714285746 0. 0.0357142873 0.0357142873 0.0714285746
      0.0714285746 0. 0. 0. 0. 0. 0.0714285746 0. 0. 0. 0. 0.0714285746
      0.0357142873 0. 0. 0. 0. 0. 0. 0. 0. 0. 0.0357142873 0.
      0.0357142873</_>
    <_>
      0.075000003 0.100000001 0. 0.0500000007 0.0250000004 0.0250000004
      0. 0.0250000004 0. 0. 0. 0. 0. 0. 0.0250000004 0.174999997
      0.0250000004 0. 0.0250000004 0.075000003 0.0250000004 0.
      0.0250000004 0. 0. 0. 0. 0. 0. 0.0250000004 0. 0.0500000007 0. 0.
      0. 0. 0.174999997 0. 0. 0. 0. 0. 0.0250000004 0.0250000004 0. 0.
      0. 0. 0. 0.0250000004</_>
    <_>
      0.038961038 0.155844152 0.012987013 0.0519480519 0.0259740259
      0.012987013 0. 0.0259740259 0.012987013 0. 0. 0.012987013 0. 0.
      0.012987013 0.0909090936 0.012987013 0. 0.012987013 0.038961038 0.
      0. 0.038961038 0. 0. 0.012987013 0. 0.012987013 0.012987013 0. 0.
      0. 0.0259740259 0.0259740259 0. 0.012987013 0.116883114
      0.0259740259 0. 0. 0. 0. 0. 0.0519480519 0.012987013 0.
      0.012987013 0. 0.0519480519 0.0649350658</_>
    <_>
      0. 0.122807018 0.0175438598 0.0175438598 0.0350877196 0.0175438598
      0. 0.0175438598 0.0350877196 0.0350877196 0. 0. 0. 0. 0.
      0.0526315793 0. 0. 0. 0.0175438598 0. 0. 0.0175438598 0.0175438598
      0. 0.0175438598 0. 0. 0.0350877196 0.0350877196 0. 0. 0.
      0.0526315793 0. 0. 0.0175438598 0.0175438598 0. 0.0175438598
      0.0526315793 0. 0.0526315793 0.105263159 0. 0. 0. 0.0350877196
      0.0350877196 0.122807018</_>
    <_>
      0. 0.200000003 0. 0. 0. 0. 0. 0. 0. 0. 0. 0. 0. 0. 0. 0. 0. 0. 0.
      0.200000003 0. 0. 0. 0. 0. 0. 0. 0. 0. 0. 0. 0. 0. 0. 0.200000003
      0. 0. 0. 0. 0. 0. 0. 0. 0. 0. 0. 0.400000006 0. 0. 0.</_>
    <_>
      0. 0.0909090936 0. 0. 0.0454545468 0. 0. 0. 0.0454545468 0. 0. 0.
      0. 0. 0. 0. 0.0454545468 0. 0.0454545468 0. 0.0454545468 0. 0. 0.
      0.0909090936 0. 0. 0. 0.0454545468 0. 0. 0. 0. 0. 0. 0. 0.13636364
      0. 0. 0. 0. 0. 0.0909090936 0.13636364 0.0454545468 0. 0. 0.
      0.0454545468 0.0909090936</_>
    <_>
      0. 0.13636364 0.0454545468 0. 0. 0. 0. 0. 0. 0.0227272734 0. 0.
      0.0227272734 0. 0.0681818202 0.113636367 0. 0. 0. 0.0454545468
      0.0909090936 0. 0.0227272734 0.0227272734 0.0454545468 0.
      0.0227272734 0. 0. 0. 0. 0. 0. 0.0227272734 0.0227272734 0.
      0.0909090936 0. 0. 0. 0. 0. 0. 0.0681818202 0. 0. 0. 0.
      0.0454545468 0.0909090936</_>
    <_>
      0. 0.0612244904 0.0102040814 0.0204081628 0. 0. 0.0102040814 0.
      0.0510204062 0. 0. 0.0102040814 0.0510204062 0.0612244904
      0.0204081628 0.0306122452 0.0102040814 0. 0. 0. 0.0204081628
      0.0204081628 0.0102040814 0.0102040814 0.0204081628 0.
      0.0306122452 0.0612244904 0. 0. 0. 0.0306122452 0.0102040814
      0.0102040814 0.0102040814 0. 0.0408163257 0.0204081628 0.
      0.0204081628 0.0204081628 0.0102040814 0.0510204062 0.0816326514
      0.0510204062 0. 0. 0. 0.0408163257 0.0918367356</_>
    <_>
      0.0444444455 0. 0. 0. 0. 0. 0.0444444455 0. 0. 0. 0. 0.0222222228
      0.0222222228 0. 0. 0.0222222228 0.0444444455 0.0222222228
      0.0444444455 0. 0.0444444455 0.0666666701 0.0222222228 0.
      0.0222222228 0. 0.0222222228 0. 0.0444444455 0.0222222228
      0.0222222228 0.0444444455 0. 0.0222222228 0.0222222228 0. 0.
      0.0666666701 0. 0.0444444455 0.0444444455 0.0222222228 0.
      0.0666666701 0. 0. 0.0222222228 0.0222222228 0.0222222228
      0.0666666701</_>
    <_>
      0. 0. 0. 0. 0. 0. 0. 0. 0. 0. 0. 0. 0. 0. 0. 0. 0. 0. 0. 0. 0. 0.
      0. 0. 0. 0. 0. 0. 0. 0.333333343 0. 0. 0. 0. 0. 0. 0. 0. 0. 0. 0.
      0. 0. 0. 0. 0.333333343 0. 0. 0.333333343 0.</_>
    <_>
      0. 0. 0. 0. 0.0769230798 0. 0. 0. 0. 0. 0. 0.0384615399
      0.0384615399 0. 0. 0. 0.0384615399 0.0769230798 0.0384615399 0.
      0.0384615399 0. 0.0384615399 0.0384615399 0. 0. 0.0769230798
      0.0769230798 0. 0.0769230798 0. 0. 0. 0.115384623 0.0384615399 0.
      0. 0.0384615399 0. 0.0384615399 0. 0. 0. 0. 0. 0.0384615399 0.
      0.0384615399 0.0384615399 0.</_>
    <_>
      0.100000001 0.0250000004 0.0500000007 0. 0.075000003 0. 0. 0.
      0.0250000004 0.0500000007 0. 0. 0.0250000004 0.0250000004
      0.0250000004 0. 0. 0. 0. 0. 0.075000003 0.0250000004 0.
      0.0250000004 0. 0. 0. 0. 0.0250000004 0. 0. 0. 0. 0. 0.0500000007
      0.075000003 0.0250000004 0.0500000007 0. 0. 0. 0. 0.075000003
      0.0250000004 0. 0. 0.0500000007 0. 0.0500000007 0.0500000007</_>
    <_>
      0.0357142873 0.0714285746 0.0357142873 0. 0.0357142873 0. 0.
      0.0357142873 0. 0.0714285746 0. 0.0357142873 0.0357142873 0. 0.
      0.0357142873 0. 0. 0.0357142873 0. 0.0357142873 0. 0. 0.
      0.0357142873 0. 0.0357142873 0. 0.0357142873 0. 0. 0. 0. 0.
      0.0357142873 0. 0.0357142873 0. 0.0357142873 0.0357142873 0. 0. 0.
      0.0714285746 0.0357142873 0. 0.0357142873 0.0357142873
      0.0357142873 0.0714285746</_>
    <_>
      0. 0.0270270277 0.0270270277 0. 0. 0. 0.0270270277 0. 0.0270270277
      0.0540540554 0. 0. 0.0270270277 0.0540540554 0.0270270277 0.
      0.0270270277 0.0270270277 0. 0. 0. 0.0270270277 0. 0. 0.0270270277
      0. 0. 0. 0. 0. 0. 0.0270270277 0. 0.0270270277 0.0810810849
      0.0270270277 0.0540540554 0.0540540554 0. 0. 0. 0. 0.0810810849
      0.0540540554 0.0270270277 0.0270270277 0.0810810849 0.
      0.0270270277 0.0540540554</_>
    <_>
      0.0303030312 0.0303030312 0.0606060624 0. 0. 0. 0.0303030312 0. 0.
      0. 0. 0.0303030312 0.0606060624 0. 0.0303030312 0. 0. 0.
      0.0303030312 0.0303030312 0.0303030312 0. 0.0303030312
      0.0303030312 0. 0. 0.0303030312 0. 0.0303030312 0. 0. 0. 0.
      0.0606060624 0.0606060624 0.0909090936 0.0606060624 0.0303030312
      0. 0. 0. 0. 0.0303030312 0. 0.0606060624 0.0606060624 0.0303030312
      0. 0.0303030312 0.</_>
    <_>
      0. 0. 0. 0. 0.0526315793 0. 0. 0. 0.0526315793 0.0526315793 0. 0.
      0. 0. 0.0526315793 0. 0. 0. 0. 0. 0.105263159 0. 0. 0. 0. 0. 0. 0.
      0. 0.105263159 0.0526315793 0.0526315793 0. 0.315789461 0. 0. 0.
      0.0526315793 0. 0. 0. 0. 0. 0. 0.0526315793 0. 0.0526315793 0. 0.
      0.</_>
    <_>
      0.0645161271 0.0322580636 0. 0. 0. 0. 0.0322580636 0. 0.
      0.0322580636 0. 0.0322580636 0. 0. 0. 0.0322580636 0. 0.0645161271
      0.0322580636 0.0967741907 0.0322580636 0. 0.0322580636 0. 0. 0. 0.
      0. 0.0645161271 0. 0.0645161271 0. 0. 0.0322580636 0.0645161271
      0.0322580636 0.0322580636 0.0322580636 0. 0. 0. 0. 0.0322580636 0.
      0.0645161271 0.0322580636 0. 0. 0.0645161271 0.</_>
    <_>
      0. 0. 0. 0. 0. 0. 0. 0. 0. 0. 0.25 0. 0. 0. 0. 0. 0. 0. 0. 0. 0.
      0. 0. 0. 0. 0. 0. 0. 0. 0.25 0. 0. 0. 0. 0. 0. 0. 0. 0. 0. 0. 0.
      0. 0. 0. 0. 0. 0.25 0.25 0.</_>
    <_>
      0.048780486 0. 0. 0.048780486 0.024390243 0.024390243 0.024390243
      0. 0. 0.097560972 0.024390243 0.097560972 0.024390243 0. 0. 0. 0.
      0.024390243 0. 0.048780486 0.024390243 0.024390243 0.024390243
      0.024390243 0.024390243 0. 0. 0.024390243 0. 0. 0. 0. 0.
      0.048780486 0.024390243 0.024390243 0.048780486 0.024390243 0. 0.
      0.024390243 0. 0. 0.024390243 0.048780486 0. 0.024390243
      0.024390243 0.048780486 0.</_>
    <_>
      0. 0. 0. 0. 0. 0. 0.0416666679 0.0416666679 0. 0. 0.0416666679
      0.0833333358 0. 0.0416666679 0. 0. 0. 0.0416666679 0. 0.0416666679
      0. 0. 0. 0. 0. 0.0416666679 0. 0. 0. 0. 0.0416666679 0.0833333358
      0. 0.416666687 0. 0. 0. 0.0416666679 0. 0. 0. 0.0416666679 0. 0.
      0. 0. 0. 0. 0. 0.</_>
    <_>
      0. 0. 0. 0. 0. 0. 0.048780486 0.024390243 0. 0. 0. 0. 0.024390243
      0. 0. 0. 0.024390243 0.024390243 0. 0.024390243 0.048780486 0. 0.
      0. 0.073170729 0. 0. 0. 0.024390243 0. 0.024390243 0.024390243
      0.024390243 0.024390243 0.048780486 0.024390243 0.097560972
      0.048780486 0. 0.121951215 0.024390243 0.024390243 0. 0.
      0.146341458 0. 0.048780486 0. 0. 0.</_>
    <_>
      0. 0.027777778 0.027777778 0.055555556 0.027777778 0. 0. 0. 0.
      0.111111112 0.027777778 0.055555556 0. 0.027777778 0. 0.027777778
      0. 0. 0. 0.0833333358 0.0833333358 0. 0.027777778 0.055555556 0.
      0.027777778 0. 0. 0. 0. 0. 0. 0. 0.055555556 0.027777778 0.
      0.055555556 0. 0. 0. 0. 0.055555556 0.027777778 0. 0.055555556 0.
      0. 0. 0.027777778 0.027777778</_>
    <_>
      0. 0. 0. 0. 0.0454545468 0. 0. 0.0454545468 0. 0. 0.0454545468
      0.0909090936 0.0909090936 0. 0. 0. 0. 0.0454545468 0. 0.
      0.0454545468 0. 0.0454545468 0.0454545468 0.0454545468 0.
      0.0454545468 0. 0. 0.0454545468 0.0454545468 0.0454545468 0.
      0.13636364 0. 0. 0. 0.0454545468 0. 0.0454545468 0.0454545468 0.
      0. 0. 0. 0. 0. 0. 0. 0.</_>
    <_>
      0.0571428575 0.0285714287 0. 0. 0.0285714287 0. 0. 0. 0.
      0.114285715 0. 0.0285714287 0. 0.0285714287 0. 0. 0. 0. 0.
      0.0571428575 0.0571428575 0. 0.0285714287 0.0571428575 0. 0. 0. 0.
      0.0285714287 0.0285714287 0. 0. 0. 0. 0.0571428575 0. 0.0285714287
      0.0571428575 0.0285714287 0.0285714287 0. 0. 0. 0. 0.0857142881
      0.0571428575 0. 0. 0.0571428575 0.0571428575</_>
    <_>
      0. 0.100000009 0. 0. 0.0333333351 0.0333333351 0. 0. 0.
      0.0666666701 0. 0.100000009 0. 0. 0. 0.0333333351 0. 0. 0.
      0.0333333351 0. 0. 0.0666666701 0.0333333351 0. 0. 0. 0. 0.
      0.0333333351 0. 0. 0. 0.0333333351 0.100000009 0. 0. 0. 0.
      0.0333333351 0. 0.0333333351 0. 0. 0.100000009 0.0333333351
      0.0333333351 0. 0.0333333351 0.0666666701</_>
    <_>
      0. 0. 0. 0.0714285746 0. 0.0714285746 0.0714285746 0. 0. 0. 0. 0.
      0.142857149 0.0714285746 0.0714285746 0.0714285746 0. 0. 0.
      0.0714285746 0. 0. 0. 0.0714285746 0. 0. 0.0714285746 0. 0. 0. 0.
      0. 0. 0.0714285746 0. 0. 0. 0. 0. 0. 0. 0. 0. 0.0714285746 0. 0.
      0. 0. 0.0714285746 0.</_>
    <_>
      0.0377358496 0.0188679248 0. 0.0188679248 0.0377358496
      0.0188679248 0.0188679248 0. 0. 0.094339624 0. 0.0377358496
      0.0754716992 0.0377358496 0. 0.0188679248 0. 0.0188679248 0.
      0.0188679248 0. 0. 0.0188679248 0. 0.0188679248 0. 0. 0.0188679248
      0.0188679248 0. 0. 0.0188679248 0. 0.0188679248 0.0566037744
      0.0188679248 0.0754716992 0. 0. 0.0188679248 0.0377358496 0.
      0.0754716992 0. 0.0566037744 0.0188679248 0.0377358496
      0.0188679248 0.0188679248 0.</_>
    <_>
      0. 0.108108111 0. 0.0270270277 0.0540540554 0. 0.0270270277 0. 0.
      0.0270270277 0. 0.0270270277 0. 0. 0. 0. 0. 0. 0. 0.0270270277 0.
      0. 0.0270270277 0.0540540554 0. 0.0270270277 0. 0. 0. 0.0270270277
      0. 0.0540540554 0. 0.0270270277 0.0540540554 0.0540540554
      0.0810810849 0.0270270277 0. 0. 0.0270270277 0.0270270277
      0.0270270277 0. 0.0810810849 0. 0.0270270277 0. 0.0270270277
      0.0540540554</_>
    <_>
      0.0204081628 0.0408163257 0. 0.0612244904 0.0204081628
      0.0204081628 0. 0. 0. 0.0816326514 0. 0.0612244904 0. 0.0204081628
      0.0204081628 0.0204081628 0. 0. 0.0204081628 0.0612244904
      0.0204081628 0. 0.0204081628 0. 0. 0.0204081628 0. 0. 0.0204081628
      0. 0. 0. 0. 0.0408163257 0.0408163257 0.0204081628 0.0816326514
      0.0204081628 0. 0.0204081628 0. 0. 0.0612244904 0. 0.0816326514
      0.0204081628 0.0612244904 0. 0.0204081628 0.</_>
    <_>
      0.0833333358 0.055555556 0. 0.0833333358 0. 0. 0. 0. 0. 0. 0.
      0.027777778 0.027777778 0. 0. 0.027777778 0.027777778 0.027777778
      0. 0.055555556 0.027777778 0. 0.027777778 0. 0.027777778 0. 0. 0.
      0.027777778 0. 0.027777778 0.027777778 0. 0. 0.0833333358 0.
      0.0833333358 0.027777778 0. 0.027777778 0. 0. 0. 0. 0.111111112 0.
      0.027777778 0. 0.027777778 0.027777778</_>
    <_>
      0. 0. 0. 0. 0. 0. 0.0666666701 0.0333333351 0. 0. 0. 0.0666666701
      0.0666666701 0.0666666701 0.0666666701 0.0666666701 0. 0. 0.
      0.0333333351 0.0333333351 0. 0.0333333351 0. 0.0666666701
      0.0333333351 0. 0. 0.0333333351 0.0333333351 0.0333333351
      0.0333333351 0. 0.0333333351 0. 0. 0. 0.0666666701 0. 0.
      0.0333333351 0. 0. 0. 0. 0. 0. 0.0666666701 0.0333333351 0.</_>
    <_>
      0.0526315793 0. 0. 0. 0.0263157897 0.0263157897 0. 0. 0.
      0.0789473653 0. 0.0526315793 0. 0.0526315793 0. 0. 0. 0. 0.
      0.0526315793 0.0526315793 0. 0.0263157897 0. 0. 0.0263157897 0. 0.
      0.0263157897 0.0263157897 0. 0.0263157897 0. 0.0263157897
      0.0526315793 0.0263157897 0.0263157897 0. 0. 0.0789473653 0.
      0.0263157897 0.0263157897 0.0263157897 0.0526315793 0.0263157897
      0.0263157897 0.0263157897 0.0526315793 0.</_>
    <_>
      0.0784313753 0.0196078438 0. 0.0392156877 0.0196078438 0. 0. 0. 0.
      0.0196078438 0. 0.0392156877 0.0196078438 0.0588235334 0. 0. 0.
      0.0196078438 0. 0.0392156877 0.0392156877 0.0392156877
      0.0196078438 0.0196078438 0. 0.0196078438 0.0196078438 0.
      0.0196078438 0.0196078438 0. 0.0196078438 0. 0.0588235334 0. 0.
      0.0980392173 0.0196078438 0.0196078438 0. 0.0392156877 0. 0. 0.
      0.0196078438 0. 0.0784313753 0.0196078438 0.0784313753 0.</_>
    <_>
      0.0799999982 0. 0.0199999996 0.0199999996 0.0199999996
      0.0199999996 0. 0. 0. 0.0399999991 0. 0.0199999996 0.0599999987
      0.0199999996 0. 0.0399999991 0. 0.0199999996 0. 0. 0.0599999987 0.
      0.0399999991 0. 0. 0. 0. 0. 0. 0.0199999996 0. 0. 0.0199999996
      0.0599999987 0.0199999996 0.0399999991 0.0599999987 0. 0.
      0.0399999991 0. 0. 0.0799999982 0.0399999991 0.0799999982 0.
      0.0199999996 0. 0.0599999987 0.</_>
    <_>
      0. 0. 0. 0.0789473653 0.0263157897 0.0263157897 0.0263157897 0. 0.
      0.0789473653 0. 0.0789473653 0. 0. 0.0263157897 0.0263157897 0.
      0.0263157897 0. 0.0526315793 0.0263157897 0. 0.0263157897
      0.0263157897 0. 0. 0. 0. 0.0263157897 0.0263157897 0.0263157897 0.
      0. 0.0526315793 0.0526315793 0.0263157897 0.0263157897 0. 0. 0. 0.
      0.0263157897 0.0263157897 0. 0.0789473653 0.0263157897 0. 0.
      0.0789473653 0.</_>
    <_>
      0. 0.0714285746 0. 0. 0. 0. 0.0714285746 0. 0. 0.0357142873 0. 0.
      0. 0. 0. 0. 0.0357142873 0.0357142873 0.0714285746 0. 0.0357142873
      0. 0. 0.0357142873 0.0357142873 0.0357142873 0. 0. 0.0357142873
      0.0357142873 0.0357142873 0.0357142873 0.0357142873 0. 0. 0.
      0.0357142873 0.0357142873 0. 0.107142866 0. 0. 0. 0. 0.0714285746
      0. 0.0714285746 0.0357142873 0. 0.</_>
    <_>
      0.025641026 0.0769230798 0. 0.102564104 0. 0. 0. 0. 0. 0.051282052
      0. 0.0769230798 0.025641026 0.025641026 0. 0.025641026 0. 0. 0.
      0.025641026 0.025641026 0. 0.025641026 0.051282052 0.025641026 0.
      0. 0. 0.051282052 0. 0. 0. 0. 0.025641026 0.025641026 0.025641026
      0.051282052 0.051282052 0. 0. 0. 0.025641026 0. 0. 0.051282052
      0.025641026 0.051282052 0. 0.051282052 0.</_>
    <_>
      0.0882352963 0. 0. 0. 0.0294117648 0. 0. 0. 0. 0.0882352963 0.
      0.0882352963 0.0294117648 0. 0. 0.0294117648 0.0294117648 0. 0.
      0.0294117648 0. 0. 0.0294117648 0. 0. 0. 0. 0. 0. 0. 0. 0. 0. 0.
      0.0882352963 0.0294117648 0.117647059 0.0294117648 0. 0. 0.
      0.0294117648 0. 0.0294117648 0.117647059 0.0294117648 0.0588235296
      0. 0.0294117648 0.</_>
    <_>
      0.0357142873 0.107142866 0. 0. 0.0357142873 0. 0. 0. 0. 0. 0.
      0.0714285746 0.0714285746 0. 0.0357142873 0.0357142873
      0.0357142873 0.0357142873 0. 0.0357142873 0. 0. 0.0357142873
      0.0357142873 0. 0. 0. 0. 0. 0. 0.0357142873 0.0357142873 0. 0.
      0.0714285746 0. 0.0357142873 0.0357142873 0. 0. 0. 0. 0.
      0.0714285746 0.0714285746 0.0357142873 0.0357142873 0. 0. 0.</_>
    <_>
      0. 0. 0.03125 0. 0. 0. 0.0625 0.03125 0. 0. 0. 0.03125 0. 0.
      0.03125 0. 0.03125 0.03125 0.03125 0.03125 0.03125 0.03125 0. 0.
      0. 0.03125 0. 0. 0.03125 0.03125 0.03125 0.03125 0.03125 0. 0. 0.
      0.03125 0.0625 0. 0.03125 0.03125 0.03125 0. 0. 0.15625 0. 0.0625
      0.03125 0. 0.</_>
    <_>
      0.0416666679 0. 0. 0.0416666679 0. 0. 0. 0. 0. 0.0416666679 0.
      0.0833333358 0.0416666679 0.0833333358 0. 0. 0. 0. 0. 0. 0. 0.
      0.0416666679 0. 0. 0. 0. 0.0416666679 0. 0.0416666679 0. 0. 0.
      0.0833333358 0.0416666679 0.0833333358 0. 0.0416666679 0.
      0.0833333358 0. 0.0416666679 0.0833333358 0. 0.0416666679 0. 0.
      0.0416666679 0. 0.</_>
    <_>
      0. 0.0769230798 0. 0.0384615399 0. 0. 0. 0. 0.0384615399
      0.0769230798 0. 0.0769230798 0. 0. 0. 0.0384615399 0. 0. 0.
      0.0384615399 0. 0. 0.0384615399 0.0384615399 0. 0.0384615399 0. 0.
      0. 0. 0.0384615399 0.0384615399 0. 0. 0. 0.0384615399 0.0384615399
      0. 0. 0. 0.0384615399 0. 0. 0.0384615399 0.0384615399 0.0384615399
      0. 0. 0.15384616 0.0384615399</_>
    <_>
      0. 0. 0. 0.0666666701 0. 0. 0. 0. 0. 0. 0. 0. 0.200000018 0. 0. 0.
      0. 0. 0. 0.0666666701 0. 0. 0. 0. 0. 0.0666666701 0.0666666701 0.
      0. 0.13333334 0. 0. 0. 0.0666666701 0. 0.0666666701 0. 0.
      0.13333334 0. 0. 0. 0. 0.0666666701 0. 0. 0. 0.0666666701 0. 0.</_>
    <_>
      0. 0. 0. 0. 0. 0. 0. 0. 0. 0. 0. 0. 0. 0. 0.25 0. 0. 0.25 0. 0. 0.
      0. 0. 0. 0. 0. 0.25 0. 0. 0. 0. 0. 0. 0. 0. 0. 0. 0.25 0. 0. 0. 0.
      0. 0. 0. 0. 0. 0. 0. 0.</_>
    <_>
      0.0370370373 0. 0. 0.0370370373 0. 0.0370370373 0. 0. 0.
      0.0370370373 0. 0.0740740746 0. 0.0370370373 0. 0. 0. 0. 0. 0.
      0.0370370373 0. 0. 0. 0. 0. 0. 0. 0.0370370373 0.0370370373 0. 0.
      0. 0.0740740746 0.0740740746 0.0370370373 0. 0. 0. 0.148148149
      0.0370370373 0. 0. 0.0370370373 0.0370370373 0. 0.0740740746 0.
      0.111111112 0.</_>
    <_>
      0.0294117648 0. 0.0294117648 0. 0. 0. 0.0588235296 0.0294117648 0.
      0. 0. 0.0588235296 0. 0. 0. 0. 0.0588235296 0.0294117648 0.
      0.0294117648 0.0294117648 0.0294117648 0.0294117648 0.
      0.0294117648 0. 0.0294117648 0. 0.0294117648 0.0588235296
      0.0294117648 0.0882352963 0. 0.0882352963 0. 0. 0.0294117648
      0.0294117648 0. 0.0294117648 0.0294117648 0.0294117648 0. 0.
      0.0294117648 0. 0.0294117648 0.0294117648 0. 0.</_>
    <_>
      0.0370370373 0.0185185187 0.0370370373 0.0370370373 0.
      0.0185185187 0. 0. 0. 0.0185185187 0. 0.0740740746 0. 0. 0.
      0.0185185187 0.0185185187 0.0185185187 0. 0.148148149 0. 0.
      0.0370370373 0.0185185187 0. 0. 0. 0.0185185187 0.0185185187
      0.0185185187 0.0185185187 0.0185185187 0. 0. 0.055555556
      0.0185185187 0.0370370373 0.0185185187 0. 0.0185185187
      0.0185185187 0. 0. 0.055555556 0.0740740746 0.0185185187
      0.0370370373 0. 0.055555556 0.</_>
    <_>
      0. 0. 0.027777778 0. 0. 0. 0. 0. 0. 0.027777778 0. 0.111111112
      0.027777778 0. 0. 0.027777778 0. 0.027777778 0. 0.138888896
      0.027777778 0. 0.027777778 0.027777778 0. 0. 0.027777778 0.
      0.027777778 0. 0.027777778 0. 0. 0.027777778 0.027777778 0.
      0.027777778 0.027777778 0. 0. 0.055555556 0.027777778 0.027777778
      0. 0.0833333358 0.055555556 0. 0. 0.0833333358 0.</_>
    <_>
      0. 0.0540540554 0.0270270277 0. 0. 0. 0.0270270277 0.0270270277 0.
      0. 0. 0.0270270277 0. 0. 0. 0. 0.0540540554 0.0270270277
      0.0270270277 0. 0.0540540554 0. 0. 0. 0.0540540554 0.0270270277 0.
      0. 0.0270270277 0. 0.0270270277 0. 0. 0. 0.0540540554 0.
      0.108108111 0.0270270277 0. 0.108108111 0.0540540554 0. 0. 0.
      0.0540540554 0. 0.0810810849 0.0540540554 0. 0.</_>
    <_>
      0.024390243 0. 0.048780486 0.048780486 0. 0.048780486 0. 0. 0.
      0.073170729 0. 0.024390243 0. 0. 0. 0.024390243 0. 0.048780486
      0.024390243 0.073170729 0. 0. 0.024390243 0. 0. 0. 0. 0.024390243
      0. 0. 0. 0. 0. 0. 0.097560972 0.097560972 0.024390243 0.024390243
      0. 0.024390243 0.024390243 0. 0.048780486 0.024390243 0.121951215
      0. 0.024390243 0. 0. 0.</_>
    <_>
      0. 0.0204081628 0.0204081628 0. 0. 0. 0.0408163257 0.0204081628 0.
      0. 0. 0. 0.0204081628 0. 0. 0. 0.0612244904 0. 0. 0.0204081628
      0.0612244904 0. 0. 0. 0.0816326514 0. 0. 0. 0.0204081628
      0.0204081628 0. 0.0204081628 0. 0. 0. 0. 0.163265303 0.0408163257
      0. 0.0816326514 0.0612244904 0.0204081628 0. 0. 0.142857134 0.
      0.0408163257 0.0408163257 0. 0.</_>
    <_>
      0.0384615399 0.0192307699 0.0576923117 0.0192307699 0.0384615399
      0. 0.0192307699 0. 0. 0.0384615399 0. 0.0384615399 0.0384615399 0.
      0.0192307699 0.0192307699 0. 0.0192307699 0. 0. 0. 0. 0. 0.
      0.0192307699 0. 0. 0. 0. 0. 0.0192307699 0.0192307699 0. 0.
      0.0384615399 0.0384615399 0.0961538479 0.0192307699 0.
      0.0192307699 0.0384615399 0. 0.0576923117 0.0192307699 0.15384616
      0.0576923117 0. 0. 0.0192307699 0.0192307699</_>
    <_>
      0. 0.174603179 0. 0. 0. 0. 0.0158730168 0.0158730168 0. 0. 0. 0.
      0.0158730168 0. 0. 0.0317460336 0.0158730168 0.0158730168 0.
      0.0317460336 0.0317460336 0.142857149 0. 0. 0.0317460336 0. 0. 0.
      0.0158730168 0. 0.0158730168 0.0158730168 0.0158730168 0.
      0.0158730168 0.0158730168 0.126984134 0.0158730168 0. 0.0317460336
      0. 0. 0. 0. 0.126984134 0. 0.0634920672 0.0158730168 0. 0.</_>
    <_>
      0.0217391308 0. 0.0217391308 0. 0.0217391308 0. 0. 0. 0.
      0.0217391308 0. 0.108695656 0.0217391308 0.0217391308 0.
      0.0434782617 0. 0.0217391308 0. 0. 0.0217391308 0. 0. 0. 0. 0.
      0.0217391308 0.0217391308 0.0217391308 0. 0.0217391308 0. 0. 0.
      0.0434782617 0. 0.152173921 0. 0. 0.0434782617 0.0652173907 0.
      0.0217391308 0. 0.239130437 0. 0.0217391308 0. 0. 0.</_>
    <_>
      0. 0.175438598 0. 0. 0. 0. 0.0350877196 0.0175438598 0. 0. 0. 0.
      0.0701754391 0. 0. 0.0175438598 0.0526315793 0.0175438598
      0.0175438598 0. 0. 0.105263159 0. 0. 0.0350877196 0. 0. 0.
      0.0350877196 0. 0.0175438598 0.0175438598 0. 0. 0. 0. 0.157894731
      0. 0. 0.0526315793 0.0175438598 0. 0. 0. 0.0877192989 0.0175438598
      0.0526315793 0. 0. 0.</_>
    <_>
      0. 0.048780486 0. 0.024390243 0. 0. 0.024390243 0. 0. 0. 0.
      0.048780486 0. 0. 0. 0. 0.024390243 0. 0.048780486 0. 0.097560972
      0. 0. 0. 0. 0. 0. 0. 0.048780486 0. 0. 0. 0.024390243 0.
      0.024390243 0. 0.121951215 0.024390243 0. 0.146341458 0.024390243
      0. 0. 0.024390243 0.097560972 0.024390243 0.024390243 0. 0.
      0.097560972</_>
    <_>
      0. 0.266666681 0. 0.0166666675 0. 0. 0.0333333351 0. 0.
      0.0333333351 0. 0.0166666675 0.100000009 0. 0. 0. 0.0166666675 0.
      0. 0. 0. 0.0166666675 0. 0. 0.0833333358 0. 0.0166666675 0. 0. 0.
      0.0166666675 0.0333333351 0.0166666675 0. 0. 0. 0.150000006
      0.0166666675 0. 0.0833333358 0. 0. 0. 0. 0.0166666675 0.0333333351
      0.0166666675 0.0166666675 0. 0.</_>
    <_>
      0. 0. 0. 0. 0. 0. 0. 0. 0. 0. 0. 0. 0. 0. 0. 0. 0. 0. 0. 0.5 0. 0.
      0. 0. 0. 0. 0. 0. 0. 0. 0. 0. 0. 0. 0. 0. 0. 0. 0. 0. 0. 0.5 0. 0.
      0. 0. 0. 0. 0. 0.</_>
    <_>
      0.5 0. 0. 0. 0. 0. 0. 0. 0. 0. 0. 0. 0. 0. 0. 0. 0. 0. 0. 0.5 0.
      0. 0. 0. 0. 0. 0. 0. 0. 0. 0. 0. 0. 0. 0. 0. 0. 0. 0. 0. 0. 0. 0.
      0. 0. 0. 0. 0. 0. 0.</_>
    <_>
      0. 0. 0. 0.25 0. 0.25 0. 0. 0. 0. 0. 0. 0. 0. 0. 0.25 0. 0. 0.25
      0. 0. 0. 0. 0. 0. 0. 0. 0. 0. 0. 0. 0. 0. 0. 0. 0. 0. 0. 0. 0. 0.
      0. 0. 0. 0. 0. 0. 0. 0. 0.</_>
    <_>
      0.055555556 0. 0. 0. 0. 0. 0. 0.055555556 0. 0.055555556 0. 0. 0.
      0.111111112 0. 0. 0. 0.055555556 0. 0. 0. 0. 0.055555556
      0.055555556 0. 0.055555556 0.111111112 0.055555556 0. 0. 0. 0. 0.
      0.055555556 0. 0. 0. 0.111111112 0. 0. 0. 0. 0. 0.055555556 0.
      0.055555556 0. 0.055555556 0. 0.</_>
    <_>
      0. 0. 0.166666672 0. 0. 0. 0. 0. 0. 0. 0. 0. 0. 0. 0. 0.333333343
      0. 0. 0. 0. 0. 0. 0. 0. 0. 0. 0. 0. 0. 0. 0.166666672 0. 0. 0. 0.
      0.166666672 0.166666672 0. 0. 0. 0. 0. 0. 0. 0. 0. 0. 0. 0. 0.</_>
    <_>
      0. 0. 0. 0. 0. 0. 0. 0. 0. 0. 0. 0. 0. 0. 0. 0.333333343 0. 0.
      0.333333343 0. 0. 0. 0. 0. 0. 0. 0. 0. 0.333333343 0. 0. 0. 0. 0.
      0. 0. 0. 0. 0. 0. 0. 0. 0. 0. 0. 0. 0. 0. 0. 0.</_>
    <_>
      0. 0.0285714287 0. 0. 0. 0. 0.0285714287 0.0285714287 0. 0. 0. 0.
      0.0285714287 0. 0. 0. 0.0285714287 0. 0.0285714287 0.0285714287
      0.0285714287 0.342857152 0.0571428575 0. 0. 0. 0. 0. 0.0285714287
      0.0571428575 0. 0.0285714287 0. 0. 0. 0. 0. 0.0285714287 0.
      0.0285714287 0. 0.0285714287 0. 0.0285714287 0. 0. 0.0285714287
      0.0285714287 0. 0.0857142881</_>
    <_>
      0. 0. 0. 0. 0. 0. 0. 0. 0. 0. 0. 0. 0. 0. 0. 0.25 0. 0. 0.25 0. 0.
      0. 0. 0. 0. 0. 0. 0. 0.25 0. 0. 0. 0. 0. 0.25 0. 0. 0. 0. 0. 0. 0.
      0. 0. 0. 0. 0. 0. 0. 0.</_>
    <_>
      0. 0. 0. 0. 0. 0.333333343 0. 0. 0. 0. 0. 0. 0. 0. 0. 0. 0. 0.
      0.333333343 0. 0. 0. 0. 0. 0. 0. 0. 0. 0.166666672 0. 0. 0. 0. 0.
      0. 0.166666672 0. 0. 0. 0. 0. 0. 0. 0. 0. 0. 0. 0. 0. 0.</_>
    <_>
      0. 0. 0.166666672 0. 0. 0.333333343 0. 0. 0. 0. 0. 0. 0. 0. 0.
      0.166666672 0. 0. 0. 0. 0. 0. 0. 0. 0. 0. 0. 0. 0. 0. 0.166666672
      0. 0. 0. 0. 0.166666672 0. 0. 0. 0. 0. 0. 0. 0. 0. 0. 0. 0. 0. 0.</_>
    <_>
      0. 0.246753246 0.012987013 0. 0. 0. 0.0259740259 0.012987013 0.
      0.0259740259 0. 0. 0.0519480519 0. 0. 0.038961038 0.038961038 0.
      0.012987013 0. 0.0259740259 0.012987013 0.012987013 0. 0.012987013
      0. 0.012987013 0. 0.012987013 0. 0.012987013 0.0649350658 0. 0.
      0.012987013 0.012987013 0.116883114 0. 0. 0.103896104 0.0519480519
      0. 0. 0. 0.012987013 0. 0.0519480519 0. 0. 0.</_>
    <_>
      0.0461538471 0. 0. 0. 0. 0. 0.0307692308 0. 0. 0.0153846154 0.
      0.0153846154 0. 0.0461538471 0. 0.0307692308 0. 0. 0.0461538471 0.
      0.0153846154 0.138461545 0.0307692308 0. 0. 0. 0. 0. 0.0461538471
      0.0153846154 0. 0.0153846154 0. 0.0153846154 0.0153846154
      0.0153846154 0. 0.0307692308 0. 0.0153846154 0.0307692308
      0.0153846154 0.0153846154 0.138461545 0. 0. 0.0461538471 0.
      0.0153846154 0.15384616</_>
    <_>
      0. 0.245614037 0. 0.0175438598 0. 0. 0.0175438598 0.0175438598 0.
      0.0175438598 0. 0.0175438598 0. 0. 0. 0.0350877196 0.0526315793 0.
      0. 0. 0. 0.192982465 0. 0. 0.0350877196 0. 0. 0. 0.0175438598 0.
      0.0175438598 0.0350877196 0. 0.0175438598 0. 0.0175438598
      0.105263159 0. 0. 0.0877192989 0.0175438598 0. 0. 0. 0. 0.
      0.0175438598 0.0175438598 0. 0.</_>
    <_>
      0. 0. 0. 0. 0. 0. 0. 0. 0. 0. 0. 0. 0. 0. 0. 0. 0. 0. 0. 0.5 0. 0.
      0. 0. 0. 0. 0. 0. 0. 0. 0. 0. 0. 0. 0. 0. 0. 0. 0. 0. 0. 0.5 0. 0.
      0. 0. 0. 0. 0. 0.</_>
    <_>
      0. 0. 0. 0. 0. 0. 0. 0. 0. 0. 0. 0.100000001 0. 0. 0. 0. 0.
      0.100000001 0. 0. 0. 0. 0.200000003 0. 0. 0. 0. 0. 0. 0.300000012
      0.100000001 0. 0. 0. 0. 0. 0. 0. 0. 0. 0. 0.100000001 0. 0. 0. 0.
      0. 0. 0.100000001 0.</_>
    <_>
      0.100000001 0. 0. 0. 0. 0. 0. 0. 0. 0. 0.200000003 0. 0. 0. 0. 0.
      0. 0. 0. 0. 0.100000001 0. 0. 0.100000001 0. 0.100000001 0. 0. 0.
      0.100000001 0.100000001 0. 0. 0. 0. 0. 0. 0. 0. 0. 0. 0. 0. 0. 0.
      0. 0. 0.200000003 0. 0.</_>
    <_>
      0.0769230798 0. 0. 0. 0. 0. 0.0769230798 0.0769230798 0. 0. 0. 0.
      0. 0. 0. 0. 0.0769230798 0. 0. 0.0769230798 0. 0. 0.0769230798 0.
      0. 0. 0.0769230798 0. 0. 0.0769230798 0. 0.0769230798 0.
      0.0769230798 0.0769230798 0. 0. 0. 0. 0. 0. 0.0769230798 0. 0. 0.
      0. 0. 0.0769230798 0. 0.</_>
    <_>
      0. 0. 0. 0. 0. 0. 0. 0. 0.0434782617 0.0869565234 0. 0.0869565234
      0. 0. 0.0434782617 0. 0.0434782617 0.0434782617 0.0434782617 0. 0.
      0. 0.0434782617 0.0434782617 0.0434782617 0. 0.0434782617 0. 0.
      0.0434782617 0.0434782617 0. 0. 0.217391312 0. 0. 0. 0. 0. 0. 0.
      0. 0.0434782617 0. 0. 0. 0.0434782617 0.0434782617 0. 0.</_>
    <_>
      0. 0. 0. 0. 0. 0. 0. 0.0500000007 0.0500000007 0.0500000007 0. 0.
      0. 0. 0.100000001 0. 0.0500000007 0.0500000007 0.0500000007 0. 0.
      0. 0.0500000007 0.0500000007 0.0500000007 0.0500000007
      0.0500000007 0. 0. 0. 0.0500000007 0. 0. 0.0500000007 0.
      0.0500000007 0. 0.0500000007 0. 0. 0. 0. 0.100000001 0. 0. 0. 0.
      0.0500000007 0. 0.</_>
    <_>
      0. 0. 0.0357142873 0. 0. 0. 0. 0.0357142873 0.0357142873 0. 0.
      0.0357142873 0. 0. 0. 0. 0.0357142873 0. 0. 0. 0.107142866 0. 0.
      0.107142866 0.0714285746 0.0357142873 0.0357142873 0. 0. 0. 0.
      0.0357142873 0. 0.107142866 0. 0.0357142873 0. 0.0357142873 0.
      0.0357142873 0. 0. 0.107142866 0. 0. 0. 0.0714285746 0.0357142873
      0. 0.</_>
    <_>
      0.0285714287 0.0571428575 0.0285714287 0.0285714287 0.0285714287
      0. 0. 0. 0.0285714287 0.0285714287 0. 0.0285714287 0. 0.0571428575
      0. 0.0285714287 0.0571428575 0. 0. 0. 0.0571428575 0.0857142881 0.
      0. 0.0571428575 0. 0. 0. 0.0571428575 0. 0. 0.0285714287 0. 0.
      0.0857142881 0. 0. 0. 0. 0. 0. 0.0571428575 0.0571428575
      0.0285714287 0.0285714287 0. 0.0285714287 0.0285714287 0. 0.</_>
    <_>
      0. 0.155555561 0. 0. 0. 0. 0. 0. 0. 0.0222222228 0. 0.
      0.0222222228 0. 0. 0.0222222228 0.0444444455 0. 0.0222222228 0.
      0.0666666701 0.111111112 0.0222222228 0. 0.0666666701 0.
      0.0222222228 0. 0.0444444455 0.0222222228 0.0222222228
      0.0222222228 0. 0. 0. 0. 0.0222222228 0.0222222228 0. 0.088888891
      0.0666666701 0. 0. 0. 0.0444444455 0. 0.0222222228 0.0444444455 0.
      0.</_>
    <_>
      0. 0.0714285672 0.0408163257 0.0204081628 0.0102040814 0.
      0.0102040814 0. 0.0306122452 0.0102040814 0. 0. 0.0204081628
      0.0102040814 0.0102040814 0.0102040814 0.0408163257 0.0102040814
      0.0510204062 0. 0.0102040814 0.122448981 0. 0. 0.0510204062
      0.0204081628 0. 0.0204081628 0.0612244904 0. 0.0102040814 0. 0.
      0.0102040814 0. 0.0102040814 0.0510204062 0.0306122452 0.
      0.102040812 0.0102040814 0.0102040814 0.0204081628 0.0204081628
      0.0306122452 0. 0.0306122452 0.0204081628 0.0102040814 0.</_>
    <_>
      0. 0. 0. 0. 0. 0. 0. 0. 0. 0. 0. 0. 0. 0. 0.166666672 0. 0. 0. 0.
      0.333333343 0. 0. 0. 0. 0. 0. 0. 0. 0. 0. 0. 0. 0. 0. 0. 0. 0.
      0.166666672 0. 0. 0. 0. 0. 0.166666672 0. 0. 0. 0.166666672 0. 0.</_>
    <_>
      0. 0. 0. 0.0454545468 0. 0. 0.0454545468 0. 0. 0.0454545468 0.
      0.0454545468 0. 0. 0.0454545468 0.0909090936 0. 0. 0.0454545468 0.
      0. 0. 0. 0. 0.0454545468 0. 0. 0. 0.13636364 0. 0. 0.0454545468 0.
      0. 0. 0. 0. 0.0454545468 0. 0. 0. 0. 0.0454545468 0.13636364 0. 0.
      0. 0. 0. 0.181818187</_>
    <_>
      0.15384616 0. 0. 0.0769230798 0. 0. 0. 0. 0. 0.0769230798 0. 0. 0.
      0. 0. 0. 0. 0. 0. 0.15384616 0. 0. 0. 0. 0.0769230798 0.0769230798
      0.0769230798 0. 0. 0.0769230798 0. 0. 0. 0. 0. 0.0769230798 0. 0.
      0. 0. 0. 0. 0. 0.0769230798 0. 0.0769230798 0. 0. 0. 0.</_>
    <_>
      0. 0. 0. 0. 0. 0. 0. 0. 0. 0. 0. 0. 0. 0. 0. 0. 0. 0. 0. 0. 0. 0.
      0. 0. 0. 0. 0. 0. 0. 0. 0. 0. 0. 0. 0. 0. 0. 0. 0. 0. 0. 0.5 0. 0.
      0. 0.5 0. 0. 0. 0.</_>
    <_>
      0. 0.0625 0.0416666679 0. 0. 0. 0.020833334 0. 0. 0. 0. 0.
      0.020833334 0.020833334 0.020833334 0. 0.020833334 0.020833334
      0.0625 0.0625 0.020833334 0.020833334 0.020833334 0. 0.0416666679
      0. 0. 0. 0.0833333358 0. 0.020833334 0.0416666679 0. 0. 0. 0.
      0.020833334 0. 0. 0.125 0.0416666679 0.020833334 0.0416666679
      0.020833334 0.0416666679 0. 0.0416666679 0. 0. 0.0416666679</_>
    <_>
      0.036144577 0.0481927693 0.0602409616 0. 0. 0.0120481923 0. 0. 0.
      0.0120481923 0. 0.0120481923 0.0481927693 0. 0. 0.0120481923
      0.0240963846 0. 0.0602409616 0.0481927693 0.0120481923
      0.0240963846 0.0120481923 0. 0.036144577 0.0120481923 0. 0.
      0.0963855386 0. 0. 0.0240963846 0. 0. 0. 0. 0.0963855386
      0.0120481923 0. 0.0240963846 0.036144577 0. 0.0120481923
      0.0722891539 0. 0. 0.0120481923 0.0120481923 0.0120481923
      0.120481923</_>
    <_>
      0.0160000008 0.064000003 0.0720000044 0. 0.0160000008
      0.00800000038 0. 0. 0.0160000008 0.0240000002 0. 0.0240000002
      0.0320000015 0.00800000038 0. 0. 0.0160000008 0.00800000038
      0.0560000017 0.0160000008 0.064000003 0.0160000008 0.0160000008
      0.00800000038 0.0320000015 0. 0.00800000038 0. 0.0720000044 0.
      0.00800000038 0.00800000038 0. 0.0240000002 0.00800000038
      0.00800000038 0.0400000028 0. 0. 0.0560000017 0.0320000015
      0.00800000038 0.0240000002 0.0960000008 0. 0. 0.00800000038
      0.0160000008 0. 0.0720000044</_>
    <_>
      0.021428572 0.0642857179 0.0500000007 0.00714285718 0.00714285718
      0. 0.00714285718 0.00714285718 0.021428572 0.0142857144 0.
      0.021428572 0.0357142873 0. 0.00714285718 0. 0.021428572 0.
      0.0571428575 0.021428572 0.0357142873 0.0285714287 0.0142857144 0.
      0.0285714287 0. 0. 0. 0.0571428575 0. 0.00714285718 0.021428572 0.
      0.00714285718 0.021428572 0.0142857144 0.021428572 0. 0.
      0.0500000007 0.021428572 0.00714285718 0.021428572 0.114285715
      0.00714285718 0. 0.0357142873 0.0142857144 0.00714285718
      0.100000001</_>
    <_>
      0. 0.0923076943 0.0615384616 0. 0.0153846154 0. 0.0153846154 0.
      0.0076923077 0.0076923077 0. 0.0153846154 0.0230769236 0. 0.
      0.0076923077 0.0230769236 0. 0.0692307726 0.0230769236
      0.0307692308 0.0076923077 0.0076923077 0.0076923077 0.0307692308
      0. 0.0076923077 0. 0.0615384616 0.0076923077 0.0076923077
      0.0153846154 0. 0.0076923077 0.0153846154 0.0230769236
      0.0230769236 0. 0. 0.0692307726 0.0307692308 0.0076923077
      0.0384615399 0.100000001 0.0076923077 0. 0.0307692308 0.0153846154
      0.0076923077 0.0769230798</_>
    <_>
      0. 0.065040648 0.073170729 0.008130081 0. 0.008130081 0. 0.
      0.024390243 0.008130081 0. 0.008130081 0.024390243 0.016260162
      0.008130081 0.008130081 0.016260162 0. 0.056910567 0.024390243
      0.032520324 0.032520324 0.008130081 0.008130081 0.032520324 0.
      0.008130081 0. 0.065040648 0. 0.008130081 0.016260162 0. 0.
      0.032520324 0.008130081 0.048780486 0. 0. 0.065040648 0.032520324
      0.008130081 0.016260162 0.113821134 0. 0. 0.024390243 0.016260162
      0.016260162 0.056910567</_>
    <_>
      0. 0. 0. 0. 0. 0. 0. 0. 0. 0. 0. 0. 0. 0. 0. 1. 0. 0. 0. 0. 0. 0.
      0. 0. 0. 0. 0. 0. 0. 0. 0. 0. 0. 0. 0. 0. 0. 0. 0. 0. 0. 0. 0. 0.
      0. 0. 0. 0. 0. 0.</_>
    <_>
      0. 0. 0.5 0. 0. 0. 0. 0. 0. 0. 0. 0. 0. 0. 0. 0. 0. 0. 0. 0. 0. 0.
      0. 0. 0. 0. 0. 0. 0. 0. 0.5 0. 0. 0. 0. 0. 0. 0. 0. 0. 0. 0. 0. 0.
      0. 0. 0. 0. 0. 0.</_>
    <_>
      0. 0. 0. 0. 0. 0.200000003 0. 0. 0. 0. 0. 0. 0. 0. 0.200000003 0.
      0. 0. 0. 0. 0. 0. 0. 0. 0. 0. 0. 0. 0. 0.200000003 0.200000003 0.
      0. 0. 0. 0. 0. 0. 0. 0. 0. 0. 0. 0. 0. 0. 0. 0. 0.200000003 0.</_>
    <_>
      0. 0. 0. 0. 0. 0. 0. 0. 0. 0. 0. 0. 0. 0. 0. 0. 0. 0. 0.166666672
      0.166666672 0. 0. 0. 0. 0. 0. 0. 0. 0. 0. 0. 0. 0. 0. 0. 0. 0. 0.
      0. 0. 0. 0.166666672 0. 0.166666672 0. 0. 0. 0. 0.333333343 0.</_>
    <_>
      0.0769230798 0. 0. 0.0769230798 0.0384615399 0.0384615399 0. 0. 0.
      0. 0. 0.0769230798 0.15384616 0. 0. 0. 0. 0. 0. 0.0384615399 0. 0.
      0. 0.0384615399 0. 0. 0.0769230798 0. 0.0384615399 0. 0. 0. 0.
      0.0769230798 0.115384623 0. 0. 0. 0. 0. 0. 0. 0.0769230798
      0.0769230798 0. 0. 0. 0. 0. 0.</_>
    <_>
      0. 0. 0. 0. 0. 0. 0. 0. 0. 0. 0. 0. 0. 0. 0. 1. 0. 0. 0. 0. 0. 0.
      0. 0. 0. 0. 0. 0. 0. 0. 0. 0. 0. 0. 0. 0. 0. 0. 0. 0. 0. 0. 0. 0.
      0. 0. 0. 0. 0. 0.</_>
    <_>
      0. 0. 0. 0. 0. 0. 0. 0. 0. 0. 0. 0. 0. 0. 0. 0. 0. 0. 0. 0. 0. 0.
      0. 0. 0. 0. 0. 0. 0. 0. 0. 0. 0. 0. 0. 0. 0. 0. 0. 0. 0. 1. 0. 0.
      0. 0. 0. 0. 0. 0.</_>
    <_>
      0. 0. 0. 0. 0. 0. 0. 0. 0. 0. 0. 0. 0. 0. 0. 0. 0. 0. 0. 0. 0. 0.
      0. 0. 0. 0. 0. 0. 0. 0. 0. 0. 0. 0. 0. 0. 0. 0. 0. 0. 0. 0. 0. 0.
      0. 0. 0. 0. 1. 0.</_>
    <_>
      0. 0. 0. 0. 0. 0. 0. 0.0416666679 0.0416666679 0.0416666679 0.
      0.0416666679 0. 0. 0. 0. 0.0416666679 0.0416666679 0.0416666679 0.
      0. 0. 0.0416666679 0.0833333358 0. 0.0833333358 0.0416666679 0. 0.
      0.0416666679 0.0416666679 0.0416666679 0.0416666679 0.0833333358
      0.0416666679 0. 0.0416666679 0.0833333358 0. 0. 0. 0. 0.0416666679
      0. 0. 0. 0. 0. 0. 0.</_>
    <_>
      0. 0. 0. 0. 0. 0. 0.0714285746 0. 0. 0. 0. 0. 0.0714285746 0. 0.
      0.0714285746 0. 0. 0. 0.0714285746 0. 0. 0. 0.0714285746 0. 0.
      0.142857149 0. 0. 0.0714285746 0. 0. 0. 0.0714285746 0.
      0.0714285746 0. 0. 0.0714285746 0. 0. 0. 0.142857149 0.0714285746
      0. 0. 0. 0. 0. 0.</_>
    <_>
      0. 0. 0. 0. 0. 0. 0. 0. 0. 0. 0. 0. 0. 0. 0.0909090936 0.
      0.0909090936 0.0909090936 0. 0. 0. 0. 0. 0. 0. 0. 0. 0.181818187
      0. 0. 0.0909090936 0. 0. 0. 0. 0. 0. 0.0909090936 0. 0. 0. 0. 0.
      0.0909090936 0. 0. 0. 0.0909090936 0.181818187 0.</_>
    <_>
      0. 0. 0. 0. 0. 0. 0. 0. 0. 0. 0. 0. 0. 0. 0. 0. 0. 0. 0. 1. 0. 0.
      0. 0. 0. 0. 0. 0. 0. 0. 0. 0. 0. 0. 0. 0. 0. 0. 0. 0. 0. 0. 0. 0.
      0. 0. 0. 0. 0. 0.</_>
    <_>
      0.0073529412 0.0220588241 0.0073529412 0. 0.0147058824 0.
      0.0147058824 0.0073529412 0. 0.0735294148 0. 0.0073529412
      0.0220588241 0.0441176482 0.0073529412 0.0367647074 0.0220588241
      0.0073529412 0.0147058824 0.0294117648 0.0220588241 0.0220588241
      0.0147058824 0. 0.0220588241 0. 0.0073529412 0.0073529412
      0.0294117648 0.0220588241 0.0073529412 0.0220588241 0.
      0.0073529412 0. 0. 0.0220588241 0.0073529412 0. 0.0294117648
      0.0147058824 0.0073529412 0.0147058824 0.102941178 0.0294117648 0.
      0.0367647074 0.0147058824 0.0367647074 0.161764711</_>
    <_>
      0. 0. 0. 0. 0. 0. 0. 0. 0. 0. 0. 0. 0. 0. 0. 0. 0. 0. 0. 0. 0. 0.
      0. 0. 0. 0. 0. 0. 0. 0. 0. 0. 0. 0. 0. 0. 0. 0. 0. 0. 0. 1. 0. 0.
      0. 0. 0. 0. 0. 0.</_>
    <_>
      0. 0. 0.200000003 0. 0. 0. 0. 0. 0. 0. 0. 0. 0. 0. 0. 0.200000003
      0. 0.200000003 0. 0. 0. 0. 0. 0. 0. 0. 0. 0. 0. 0. 0.200000003 0.
      0.200000003 0. 0. 0. 0. 0. 0. 0. 0. 0. 0. 0. 0. 0. 0. 0. 0. 0.</_>
    <_>
      0. 0.055555556 0. 0.055555556 0.055555556 0. 0. 0. 0.111111112 0.
      0. 0. 0.111111112 0. 0. 0.055555556 0. 0. 0. 0. 0. 0.055555556 0.
      0.111111112 0. 0.055555556 0. 0. 0. 0.055555556 0. 0. 0.
      0.111111112 0. 0. 0. 0.055555556 0. 0. 0. 0. 0.055555556
      0.055555556 0. 0. 0. 0. 0. 0.</_>
    <_>
      0.0238095243 0.095238097 0. 0.0238095243 0. 0. 0.0476190485
      0.0238095243 0. 0.0476190485 0. 0.0476190485 0.0238095243 0. 0. 0.
      0.0476190485 0. 0.0476190485 0. 0.0476190485 0. 0.0238095243 0.
      0.0714285746 0. 0. 0. 0.0476190485 0. 0. 0.0238095243 0. 0. 0. 0.
      0.0476190485 0.0476190485 0. 0.142857149 0.095238097 0. 0. 0. 0.
      0. 0. 0.0238095243 0. 0.</_>
    <_>
      0. 0. 0. 0.333333343 0. 0. 0. 0. 0. 0. 0. 0. 0. 0. 0. 0. 0. 0. 0.
      0. 0. 0. 0. 0. 0. 0. 0. 0. 0. 0. 0. 0. 0. 0. 0. 0. 0. 0.
      0.333333343 0. 0. 0. 0. 0. 0. 0. 0. 0. 0.333333343 0.</_>
    <_>
      0. 0. 0. 0. 0. 0. 0. 0. 0. 0. 0. 0. 0. 0. 0. 0. 0. 0. 0. 0.5 0. 0.
      0. 0. 0. 0. 0. 0. 0. 0. 0. 0. 0. 0. 0. 0. 0. 0. 0. 0. 0. 0.5 0. 0.
      0. 0. 0. 0. 0. 0.</_>
    <_>
      0. 0. 0. 0. 0. 0. 0. 0. 0. 0.0769230798 0. 0.0769230798 0. 0. 0.
      0. 0. 0.0769230798 0. 0. 0.15384616 0. 0.0769230798 0.
      0.0769230798 0. 0. 0. 0.0769230798 0.0769230798 0.0769230798 0. 0.
      0. 0.0769230798 0. 0. 0.0769230798 0. 0. 0.0769230798 0. 0. 0. 0.
      0. 0. 0. 0. 0.</_>
    <_>
      0. 0. 0.0666666701 0. 0. 0. 0. 0. 0. 0.0666666701 0. 0. 0. 0. 0.
      0. 0. 0. 0. 0. 0.0666666701 0. 0.0666666701 0. 0.0666666701
      0.13333334 0. 0. 0.0666666701 0.13333334 0. 0. 0.0666666701 0.
      0.0666666701 0. 0. 0.0666666701 0. 0. 0.0666666701 0. 0. 0. 0. 0.
      0. 0.0666666701 0. 0.</_>
    <_>
      0. 0. 0.0526315793 0. 0. 0. 0. 0. 0. 0.0526315793 0. 0. 0. 0. 0.
      0. 0. 0.0526315793 0.0526315793 0. 0.105263159 0. 0.0526315793 0.
      0. 0.0526315793 0. 0. 0.0526315793 0.0526315793 0.0526315793 0. 0.
      0.105263159 0.0526315793 0.0526315793 0.0526315793 0. 0. 0.
      0.0526315793 0. 0. 0. 0. 0. 0.0526315793 0.0526315793 0. 0.</_>
    <_>
      0. 0.0909090936 0. 0. 0. 0. 0. 0. 0. 0. 0. 0.181818187
      0.0909090936 0. 0. 0. 0. 0. 0. 0. 0. 0. 0. 0. 0. 0. 0. 0. 0. 0. 0.
      0. 0. 0.363636374 0.0909090936 0. 0. 0. 0. 0. 0. 0.0909090936 0.
      0. 0. 0. 0.0909090936 0. 0. 0.</_>
    <_>
      0. 0. 0. 0. 0. 0. 0. 0. 0. 0. 0. 0. 0. 0. 0. 0. 0. 0. 0. 0.5 0. 0.
      0. 0. 0. 0. 0. 0. 0. 0. 0. 0. 0. 0. 0. 0. 0. 0. 0. 0. 0. 0.5 0. 0.
      0. 0. 0. 0. 0. 0.</_>
    <_>
      0. 0. 0. 0. 0. 0. 0. 0. 0. 0. 0. 0. 0. 0. 0.333333343 0. 0. 0. 0.
      0. 0. 0. 0. 0. 0. 0. 0. 0. 0. 0.333333343 0. 0. 0. 0. 0. 0. 0.
      0.333333343 0. 0. 0. 0. 0. 0. 0. 0. 0. 0. 0. 0.</_>
    <_>
      0. 0. 0.095238097 0.095238097 0. 0. 0. 0. 0. 0.0476190485 0.
      0.095238097 0. 0. 0. 0. 0.0476190485 0. 0. 0.095238097 0. 0. 0. 0.
      0.0476190485 0. 0.0476190485 0. 0. 0. 0.0476190485 0. 0.
      0.190476194 0. 0. 0. 0.0476190485 0. 0. 0. 0. 0.095238097 0. 0. 0.
      0. 0.0476190485 0. 0.</_>
    <_>
      0. 0. 0. 0. 0. 0. 0. 0. 0. 0. 0. 0. 0. 0. 0. 0. 0. 0. 0. 0. 0. 0.
      0. 0. 0. 0. 0. 0. 0. 0. 0. 0. 0. 0. 0. 0. 0. 0. 0. 0. 0. 0.5 0. 0.
      0. 0. 0. 0. 0.5 0.</_>
    <_>
      0. 0.015625 0.078125 0.015625 0. 0. 0. 0. 0.015625 0. 0. 0.
      0.046875 0.015625 0. 0.015625 0.03125 0.015625 0.046875 0. 0.
      0.0625 0. 0. 0.0625 0. 0.015625 0. 0.078125 0. 0.015625 0. 0.
      0.015625 0. 0. 0.03125 0. 0. 0.15625 0.03125 0.015625 0.03125
      0.03125 0.046875 0. 0.03125 0.015625 0. 0.0625</_>
    <_>
      0.09375 0. 0. 0.0625 0.0625 0.0625 0. 0. 0. 0.03125 0. 0. 0.09375
      0. 0. 0.03125 0. 0. 0.03125 0. 0.03125 0. 0.03125 0. 0. 0.03125
      0.03125 0. 0. 0. 0. 0. 0. 0.0625 0.09375 0.0625 0. 0. 0. 0. 0. 0.
      0.09375 0.0625 0. 0. 0. 0. 0.03125 0.</_>
    <_>
      0.15384616 0. 0.15384616 0. 0. 0. 0. 0. 0. 0. 0. 0. 0. 0. 0. 0. 0.
      0. 0. 0. 0.0769230798 0. 0. 0.0769230798 0.0769230798 0.
      0.0769230798 0. 0. 0. 0. 0.15384616 0. 0. 0.0769230798 0.
      0.0769230798 0. 0. 0. 0.0769230798 0. 0. 0. 0. 0. 0. 0. 0. 0.</_>
    <_>
      0. 0. 0.285714298 0. 0. 0. 0. 0. 0. 0. 0. 0. 0. 0. 0. 0.142857149
      0. 0. 0.142857149 0. 0. 0. 0. 0.142857149 0. 0.142857149 0. 0.
      0.142857149 0. 0. 0. 0. 0. 0. 0. 0. 0. 0. 0. 0. 0. 0. 0. 0. 0. 0.
      0. 0. 0.</_>
    <_>
      0. 0. 0. 0.0454545468 0. 0. 0.0909090936 0. 0. 0.13636364 0.
      0.0454545468 0.0454545468 0.0454545468 0. 0.0454545468
      0.0454545468 0. 0. 0.13636364 0. 0. 0. 0. 0. 0. 0. 0. 0.
      0.0454545468 0. 0. 0. 0.0454545468 0.0454545468 0. 0. 0. 0. 0. 0.
      0. 0. 0.0454545468 0.0454545468 0. 0. 0. 0.0909090936 0.0454545468</_>
    <_>
      0. 0. 0. 0. 0. 0. 0. 0. 0. 0. 0. 0. 0. 0. 0. 0.5 0. 0. 0. 0. 0. 0.
      0. 0. 0. 0. 0. 0. 0.5 0. 0. 0. 0. 0. 0. 0. 0. 0. 0. 0. 0. 0. 0. 0.
      0. 0. 0. 0. 0. 0.</_>
    <_>
      0.333333343 0. 0. 0.333333343 0. 0. 0. 0. 0. 0. 0. 0. 0. 0. 0.
      0.333333343 0. 0. 0. 0. 0. 0. 0. 0. 0. 0. 0. 0. 0. 0. 0. 0. 0. 0.
      0. 0. 0. 0. 0. 0. 0. 0. 0. 0. 0. 0. 0. 0. 0. 0.</_>
    <_>
      0. 0. 0. 0. 0. 0. 0. 0. 0. 0. 0. 0. 0. 0. 0. 0. 0. 0. 0.
      0.333333343 0. 0. 0. 0. 0. 0. 0. 0. 0. 0. 0. 0. 0. 0. 0. 0. 0.
      0.333333343 0. 0. 0. 0.333333343 0. 0. 0. 0. 0. 0. 0. 0.</_>
    <_>
      0. 0. 0. 0. 0. 0. 0. 0.142857149 0. 0. 0. 0. 0. 0. 0. 0.285714298
      0. 0. 0. 0. 0. 0. 0.142857149 0. 0. 0.142857149 0.142857149 0. 0.
      0. 0. 0. 0.142857149 0. 0. 0. 0. 0. 0. 0. 0. 0. 0. 0. 0. 0. 0. 0.
      0. 0.</_>
    <_>
      0. 0. 0. 0.0476190485 0.0476190485 0. 0.0476190485 0. 0. 0. 0.
      0.0476190485 0. 0. 0. 0.0476190485 0. 0. 0. 0. 0.142857149 0.
      0.095238097 0.0476190485 0.095238097 0. 0. 0. 0. 0. 0.
      0.0476190485 0. 0. 0. 0. 0.190476194 0. 0. 0. 0.095238097 0. 0. 0.
      0. 0. 0.0476190485 0. 0. 0.</_>
    <_>
      0. 0.147540972 0.0491803251 0. 0. 0. 0. 0.0163934417 0.
      0.0163934417 0. 0. 0. 0.0163934417 0.0163934417 0. 0.0163934417 0.
      0.0327868834 0. 0.0819672048 0.0655737668 0.0163934417 0.
      0.0491803251 0. 0. 0. 0.0163934417 0. 0. 0. 0. 0.0163934417 0.
      0.0163934417 0.295081943 0.0163934417 0. 0.0327868834 0.0327868834
      0.0163934417 0. 0. 0. 0. 0.0327868834 0. 0. 0.</_>
    <_>
      0. 0. 0. 0. 0. 0. 0. 0. 0. 0. 0. 0. 0. 0. 0. 1. 0. 0. 0. 0. 0. 0.
      0. 0. 0. 0. 0. 0. 0. 0. 0. 0. 0. 0. 0. 0. 0. 0. 0. 0. 0. 0. 0. 0.
      0. 0. 0. 0. 0. 0.</_>
    <_>
      0. 0. 0. 0. 0. 0. 0. 0. 0. 0. 0. 0. 0. 0. 0. 0. 0. 0. 0. 0.5 0. 0.
      0. 0. 0. 0. 0. 0. 0. 0. 0. 0. 0. 0. 0. 0. 0. 0. 0. 0. 0. 0.5 0. 0.
      0. 0. 0. 0. 0. 0.</_>
    <_>
      0. 0. 0. 0. 0. 0. 0. 0. 0. 0. 0. 0. 0. 0. 0. 0. 0. 0. 0.
      0.666666687 0. 0. 0. 0. 0. 0. 0. 0. 0. 0. 0. 0. 0. 0. 0. 0. 0. 0.
      0. 0. 0. 0.333333343 0. 0. 0. 0. 0. 0. 0. 0.</_>
    <_>
      0. 0. 0. 0.0769230798 0. 0. 0. 0. 0. 0. 0. 0. 0.0769230798 0. 0.
      0.0769230798 0. 0. 0. 0.0769230798 0. 0. 0. 0.0769230798 0.
      0.0769230798 0. 0. 0. 0.0769230798 0. 0. 0. 0.15384616 0.15384616
      0. 0. 0. 0.0769230798 0. 0. 0. 0. 0.0769230798 0. 0. 0. 0. 0. 0.</_>
    <_>
      0. 0.0384615399 0. 0.0384615399 0.0384615399 0. 0. 0. 0.
      0.0769230798 0. 0.115384623 0.0769230798 0. 0.0769230798 0.
      0.0384615399 0.0384615399 0. 0.0384615399 0.0384615399 0. 0.
      0.0384615399 0. 0. 0.0384615399 0. 0. 0. 0. 0. 0.0384615399 0. 0.
      0. 0.0384615399 0.0384615399 0. 0. 0. 0.0384615399 0. 0.0769230798
      0. 0. 0.0384615399 0. 0. 0.0384615399</_>
    <_>
      0. 0. 0. 0. 0. 0. 0. 0.125 0. 0. 0. 0. 0. 0. 0. 0.125 0. 0. 0.125
      0.125 0. 0. 0. 0. 0. 0. 0. 0. 0. 0. 0. 0. 0. 0. 0. 0. 0. 0.125 0.
      0. 0. 0. 0.25 0. 0. 0. 0.125 0. 0. 0.</_>
    <_>
      0. 0. 0. 0. 0.0833333358 0. 0. 0.166666672 0. 0. 0. 0. 0. 0. 0.
      0.0833333358 0. 0. 0. 0. 0. 0. 0. 0.166666672 0. 0. 0. 0. 0.
      0.0833333358 0. 0. 0.166666672 0. 0. 0.0833333358 0. 0. 0. 0. 0.
      0. 0. 0. 0. 0. 0. 0.166666672 0. 0.</_>
    <_>
      0. 0.0250000004 0.0250000004 0. 0. 0. 0.0500000007 0. 0. 0. 0.
      0.0250000004 0. 0.0250000004 0. 0. 0.0500000007 0. 0.0250000004
      0.0250000004 0.0500000007 0.174999997 0.0250000004 0. 0.075000003
      0. 0.0250000004 0. 0.0500000007 0.0250000004 0.0250000004
      0.0500000007 0. 0.0250000004 0.0250000004 0.0250000004 0. 0. 0.
      0.0250000004 0.0250000004 0.0250000004 0. 0. 0. 0. 0.0500000007
      0.0250000004 0. 0.0250000004</_>
    <_>
      0. 0. 0. 0. 0. 0. 0. 0. 0. 0. 0. 0. 0. 0. 0. 0. 0. 0. 1. 0. 0. 0.
      0. 0. 0. 0. 0. 0. 0. 0. 0. 0. 0. 0. 0. 0. 0. 0. 0. 0. 0. 0. 0. 0.
      0. 0. 0. 0. 0. 0.</_>
    <_>
      0. 0. 0. 0.333333343 0. 0. 0. 0. 0. 0. 0. 0. 0. 0. 0. 0.666666687
      0. 0. 0. 0. 0. 0. 0. 0. 0. 0. 0. 0. 0. 0. 0. 0. 0. 0. 0. 0. 0. 0.
      0. 0. 0. 0. 0. 0. 0. 0. 0. 0. 0. 0.</_>
    <_>
      0. 0. 0. 0. 0. 0. 0. 0.0500000007 0. 0.200000003 0. 0. 0. 0. 0.
      0.0500000007 0. 0.0500000007 0. 0. 0.0500000007 0. 0. 0.100000001
      0. 0.150000006 0.0500000007 0. 0. 0. 0. 0. 0.100000001 0.
      0.100000001 0.0500000007 0. 0. 0. 0. 0. 0. 0.0500000007 0. 0. 0.
      0. 0. 0. 0.</_>
    <_>
      0. 0. 0. 0. 0. 0. 0. 0. 0. 0. 0. 0. 0. 0. 0. 0. 0. 0. 0. 0. 0. 0.
      0. 0. 0. 0. 0. 0. 1. 0. 0. 0. 0. 0. 0. 0. 0. 0. 0. 0. 0. 0. 0. 0.
      0. 0. 0. 0. 0. 0.</_>
    <_>
      0. 0. 0. 0. 0. 0. 0. 0. 0. 0. 0. 0. 0. 0. 0. 0.5 0. 0. 0. 0. 0. 0.
      0. 0. 0. 0. 0. 0. 0. 0. 0. 0. 0. 0. 0. 0.5 0. 0. 0. 0. 0. 0. 0. 0.
      0. 0. 0. 0. 0. 0.</_>
    <_>
      0. 0. 0. 0.0833333358 0. 0.0833333358 0. 0. 0. 0. 0. 0. 0. 0. 0.
      0. 0. 0. 0. 0. 0. 0. 0. 0.166666672 0. 0. 0.0833333358 0. 0. 0. 0.
      0. 0. 0.166666672 0.25 0.0833333358 0. 0. 0.0833333358 0. 0. 0. 0.
      0. 0. 0. 0. 0. 0. 0.</_>
    <_>
      0. 0. 0. 0. 0. 0. 0. 0. 0. 0. 0. 0. 0. 0. 0.333333343 0. 0. 0. 0.
      0. 0. 0. 0. 0. 0. 0. 0. 0. 0. 0. 0. 0. 0. 0. 0. 0. 0. 0. 0. 0. 0.
      0.333333343 0. 0. 0. 0. 0. 0. 0.333333343 0.</_>
    <_>
      0.0869565234 0. 0. 0.0869565234 0.0434782617 0.130434781 0. 0. 0.
      0. 0. 0.0434782617 0.0434782617 0. 0. 0.0434782617 0. 0.
      0.0434782617 0.0434782617 0.0434782617 0. 0. 0. 0. 0. 0. 0.
      0.0434782617 0. 0. 0. 0. 0. 0.0869565234 0.0434782617 0. 0. 0. 0.
      0. 0.0434782617 0.130434781 0.0434782617 0. 0. 0. 0. 0. 0.</_>
    <_>
      0. 0. 0. 0. 0. 0. 0. 0. 0. 0. 0.333333343 0. 0. 0. 0.333333343 0.
      0. 0. 0. 0. 0. 0. 0. 0. 0. 0. 0. 0. 0. 0. 0. 0. 0. 0. 0. 0. 0. 0.
      0. 0. 0. 0. 0. 0. 0. 0. 0. 0.333333343 0. 0.</_>
    <_>
      0. 0. 0. 0. 0. 0. 0. 0.142857149 0. 0.285714298 0. 0. 0. 0. 0. 0.
      0. 0.0714285746 0. 0. 0. 0. 0. 0. 0. 0.0714285746 0. 0. 0. 0. 0.
      0.0714285746 0.0714285746 0. 0. 0. 0.0714285746 0. 0.0714285746
      0.0714285746 0. 0. 0. 0. 0.0714285746 0. 0. 0. 0. 0.</_>
    <_>
      0. 0. 0. 0. 0. 0. 0. 0.055555556 0. 0.166666672 0. 0.055555556 0.
      0. 0. 0. 0. 0.055555556 0. 0. 0.111111112 0. 0. 0.055555556
      0.055555556 0.055555556 0. 0. 0. 0. 0.055555556 0. 0.111111112 0.
      0. 0. 0. 0.111111112 0. 0. 0.055555556 0. 0. 0. 0. 0. 0.055555556
      0. 0. 0.</_>
    <_>
      0. 0. 0. 0. 0. 0. 0. 0. 0. 0.0714285746 0. 0.0714285746 0. 0. 0.
      0. 0.0714285746 0.0714285746 0. 0.0714285746 0.0714285746 0. 0.
      0.0714285746 0.0714285746 0.0714285746 0. 0.0714285746 0. 0.
      0.0714285746 0. 0. 0. 0. 0. 0. 0. 0. 0.0714285746 0. 0.0714285746
      0. 0. 0. 0. 0.0714285746 0. 0. 0.</_>
    <_>
      0. 0. 0. 0. 0. 0. 0. 0. 0. 0. 0. 0. 0. 0. 0.5 0. 0. 0. 0. 0. 0. 0.
      0. 0. 0. 0. 0. 0. 0. 0. 0. 0. 0. 0. 0. 0. 0. 0. 0. 0. 0. 0. 0. 0.
      0. 0. 0. 0. 0.5 0.</_>
    <_>
      0. 0. 0. 0.0416666679 0. 0. 0.0416666679 0. 0. 0.0416666679 0.
      0.0833333358 0. 0. 0. 0.0833333358 0. 0.0416666679 0. 0.
      0.0416666679 0. 0. 0.0416666679 0. 0. 0. 0. 0.0416666679 0. 0. 0.
      0.0416666679 0. 0.0416666679 0. 0.0833333358 0. 0. 0.0416666679
      0.0416666679 0. 0.0416666679 0. 0.25 0. 0. 0. 0. 0.</_>
    <_>
      0. 0.0217391308 0. 0. 0. 0. 0.0217391308 0. 0. 0. 0. 0.
      0.0434782617 0.152173921 0. 0. 0.0217391308 0.0217391308
      0.0434782617 0. 0. 0.0652173907 0. 0. 0.0434782617 0. 0. 0.
      0.0652173907 0. 0.0217391308 0.0434782617 0. 0. 0. 0.0434782617
      0.108695656 0.0217391308 0.0217391308 0.152173921 0.0217391308
      0.0217391308 0. 0. 0.0217391308 0. 0.0217391308 0. 0. 0.</_>
    <_>
      0.0149253728 0.0597014911 0.0447761193 0.0298507456 0.
      0.0149253728 0.0149253728 0. 0. 0.0298507456 0. 0.0149253728
      0.0149253728 0. 0.0149253728 0.0149253728 0. 0.0149253728 0. 0.
      0.074626863 0. 0. 0.0298507456 0. 0. 0.0149253728 0. 0.0298507456
      0.0149253728 0.0149253728 0.0298507456 0. 0.0298507456 0.
      0.0149253728 0.0895522386 0.0149253728 0. 0.074626863 0.0149253728
      0. 0. 0.0149253728 0.149253726 0.0298507456 0.074626863 0. 0. 0.</_>
    <_>
      0. 0. 0. 0.5 0. 0. 0. 0. 0. 0. 0. 0. 0. 0. 0. 0. 0. 0. 0. 0. 0. 0.
      0. 0. 0. 0. 0. 0. 0. 0. 0. 0. 0. 0. 0. 0. 0. 0. 0.5 0. 0. 0. 0. 0.
      0. 0. 0. 0. 0. 0.</_>
    <_>
      0. 0. 0. 0. 0. 0. 0. 0.0714285746 0. 0. 0. 0. 0. 0. 0. 0.
      0.0714285746 0.0714285746 0. 0. 0. 0. 0.0714285746 0.142857149 0.
      0.142857149 0.0714285746 0. 0. 0. 0.0714285746 0. 0.0714285746
      0.0714285746 0. 0. 0. 0.0714285746 0.0714285746 0. 0. 0. 0. 0. 0.
      0. 0. 0. 0. 0.</_>
    <_>
      0. 0. 0. 0. 0. 0. 0.0344827585 0.0344827585 0.0344827585
      0.068965517 0. 0.0344827585 0.0344827585 0. 0. 0.0344827585
      0.0344827585 0. 0.0344827585 0. 0.0344827585 0. 0. 0.068965517
      0.068965517 0. 0.103448272 0. 0. 0. 0. 0.103448272 0. 0. 0. 0.
      0.068965517 0.0344827585 0.068965517 0. 0.0344827585 0. 0. 0.
      0.068965517 0. 0. 0. 0. 0.</_>
    <_>
      0. 0. 0. 0. 0. 0. 0. 0. 0. 0. 0. 0. 0. 0. 0. 0. 0. 0. 0. 0. 0. 0.
      0. 0. 0. 0. 0. 0. 0. 0. 0. 0. 0. 0. 0. 0. 0. 0. 0. 0. 0.
      0.333333343 0. 0. 0. 0. 0. 0. 0.666666687 0.</_>
    <_>
      0.0500000007 0. 0. 0. 0. 0. 0.0500000007 0.0500000007 0.
      0.0500000007 0. 0.100000001 0.0500000007 0. 0. 0.0500000007 0.
      0.0500000007 0.0500000007 0. 0. 0. 0. 0. 0.0500000007 0.0500000007
      0. 0. 0.0500000007 0. 0.0500000007 0. 0.100000001 0. 0. 0.
      0.0500000007 0. 0. 0.0500000007 0.0500000007 0. 0. 0. 0. 0.
      0.0500000007 0. 0. 0.</_>
    <_>
      0. 0. 0. 0. 0. 0. 0. 0. 0. 0. 0. 0. 0. 0. 0.333333343 0. 0. 0. 0.
      0. 0. 0. 0. 0. 0. 0. 0. 0. 0. 0. 0. 0. 0. 0. 0. 0. 0. 0.333333343
      0. 0. 0. 0. 0. 0. 0. 0. 0. 0. 0.333333343 0.</_>
    <_>
      0. 0. 0. 0. 0. 0. 0. 0. 0. 0. 0. 0. 0. 0. 0. 0. 0. 0.0526315793 0.
      0. 0.0526315793 0. 0.0526315793 0.0526315793 0. 0.105263159
      0.0526315793 0. 0. 0.0526315793 0. 0. 0. 0.421052635 0. 0. 0.
      0.0526315793 0. 0. 0. 0. 0.105263159 0. 0. 0. 0. 0. 0. 0.</_>
    <_>
      0. 0. 0. 0.055555556 0.055555556 0. 0. 0.055555556 0. 0.055555556
      0. 0.055555556 0. 0. 0. 0. 0.055555556 0.055555556 0. 0. 0. 0. 0.
      0.055555556 0.055555556 0.055555556 0.055555556 0. 0. 0.
      0.055555556 0.055555556 0.055555556 0. 0.055555556 0.055555556 0.
      0.055555556 0. 0. 0. 0. 0. 0. 0. 0. 0. 0.055555556 0. 0.</_>
    <_>
      0. 0. 0. 0. 0. 0. 0. 0.0625 0. 0. 0. 0. 0. 0. 0. 0. 0.0625 0. 0.
      0. 0. 0. 0.0625 0. 0. 0.1875 0.0625 0. 0. 0.125 0. 0.0625 0.0625
