<?xml version="1.0"?>
<opencv_storage>
<opencv_ml_svm>
  <format>3</format>
  <svmType>C_SVC</svmType>
  <kernel>
    <type>RBF</type>
    <gamma>0.00015000000000000001</gamma></kernel>
  <C>2.5</C>
  <term_criteria><epsilon>1.1920928955078125e-07</epsilon>
    <iterations>1000</iterations></term_criteria>
  <var_count>2</var_count>
  <class_count>2</class_count>
  <class_labels type_id="opencv-matrix">
    <rows>2</rows>
    <cols>1</cols>
    <dt>i</dt>
    <data>
      0 1</data></class_labels>
  <sv_total>24</sv_total>
  <support_vectors>
    <_>
      147. 147.</_>
    <_>
      94. 84.</_>
    <_>
      89. 113.</_>
    <_>
      24. 2.</_>
    <_>
      143. 106.</_>
    <_>
      99. 2.</_>
    <_>
      149. 146.</_>
    <_>
      146. 87.</_>
    <_>
      148. 154.</_>
    <_>
      50. 149.</_>
    <_>
      105. 90.</_>
    <_>
      124. 118.</_>
    <_>
      242. 159.</_>
    <_>
      101. 142.</_>
    <_>
      128. 160.</_>
    <_>
      193. 239.</_>
    <_>
      140. 103.</_>
    <_>
      222. 190.</_>
    <_>
      138. 105.</_>
    <_>
      201. 98.</_>
    <_>
      176. 157.</_>
    <_>
      142. 139.</_>
    <_>
      145. 246.</_>
    <_>
      124. 115.</_></support_vectors>
  <decision_functions>
    <_>
      <sv_count>24</sv_count>
      <rho>-0.0017704950609739919</rho>
      <alpha>
        2.5 0.035128711416207728 2.5 0.57990698571791799 2.5
        0.10353703008714021 2.5 2.5 2.5 1.7858862953636478 2.5 -2.5
        -0.14047118287686752 -2.5 -2.3718829005331479
        -0.27807874791199882 -2.5 -0.5108584388304559 -2.5
        -1.2838827733764604 -1.4709101719963755 -0.78728309845274969
        -0.66109170860685784 -2.5</alpha>
      <index>
        0 1 2 3 4 5 6 7 8 9 10 11 12 13 14 15 16 17 18 19 20 21 22 23</index></_></decision_functions></opencv_ml_svm>
</opencv_storage>
